98 128
849 -0.21880727 0.14956316 0.051765483 0.14554441 -0.023041766 -0.018182319 0.08630169 0.035194866 -0.1257153 0.07236018 -0.0604078 -0.018118663 0.010968823 0.025360072 -0.03864179 -0.092363395 0.33949202 -0.2098139 0.028157687 -0.03650867 0.05114062 -0.31154066 0.08087047 0.14193411 -0.1384254 -0.22226591 0.18081515 -0.058936924 0.13466886 0.093242064 0.10421334 -0.064163804 0.034374855 -0.29326832 0.05258657 -0.15751132 0.12274098 0.20951374 -0.15318894 0.102130614 -0.089136235 -0.031382233 0.025478411 -0.102771625 -0.0060782693 -0.3020339 0.0756488 0.07717289 -0.35360527 -0.14815322 -0.031186003 -0.10820967 -0.2195393 -0.12561385 -0.27550945 -0.05744981 0.2147936 -0.07727595 -0.10528627 0.0147293545 0.020423083 -0.029166207 0.21322642 -0.033581454 0.04168584 -0.096464075 -0.02352221 0.24289277 -0.04847661 -0.08694868 0.15213096 -0.19199553 0.101268955 -0.07511908 0.2297294 0.16225632 0.106489696 0.044275455 -0.06926728 0.12901427 -0.089756064 -0.21652992 0.046401426 -0.26236618 0.055719815 -0.07291804 -0.119618766 -0.062428635 0.24910156 0.083399735 0.041428678 -0.22217754 0.11315536 -0.03187104 0.26716048 0.21865223 -0.0026743845 0.15556297 -0.08852493 -0.108827166 0.05966033 -0.12683287 0.4682338 0.23052764 0.1350731 -0.09068508 -0.16855085 -0.24433835 -0.13220955 -0.018610109 0.00049252796 0.13367318 -0.16622828 -0.24455923 0.1886904 -0.14488535 -0.13809755 -0.059564777 -0.11350723 -0.10151801 0.12170207 -0.14602298 0.05544368 -0.23213579 -0.04001176 0.19623984 -0.04030378 -0.13286062
886 0.05998385 0.0072222203 -0.07157204 0.3019485 -0.035115518 0.14384247 0.029786482 0.06960019 0.076003864 -0.14154403 0.14686023 -0.00063349423 -0.04617912 0.09020052 -0.421248 -0.11167963 0.042915616 -0.41320008 0.03709169 -0.017591005 0.19315428 -0.23353599 -0.15949436 -0.10461199 -0.33700797 0.016482199 0.16877645 0.04694204 0.11721799 0.23046957 0.18936315 0.19888589 0.024591792 0.14975935 0.006853234 0.06762672 0.18692508 0.030112293 -0.11708934 0.020634059 -0.19604796 -0.013847143 0.28985286 0.09561926 0.043833897 -0.033196315 -0.00032665097 0.0716261 -0.1309057 0.09505573 -0.015524021 -0.037398178 -0.41515937 -0.37724066 -0.19389263 -0.16489884 0.1290713 -0.15986003 -0.050322957 0.13569129 -0.17296197 -0.03092161 0.13007091 -0.06908381 -0.038513403 -0.018339222 0.15323482 0.33399516 0.066220626 -0.28911915 0.16678376 -0.13682452 0.23297201 0.029258922 0.15058638 -0.013455231 0.19707906 -0.05530713 -0.33736676 0.12926193 0.060134012 -0.34414348 -0.06403698 0.23478898 0.32852882 -0.03707514 -0.07841413 -0.12795366 0.0990719 -0.059792947 0.10463592 -0.07488025 0.26523426 -0.0599902 0.2832161 0.10037658 0.02086043 0.21582471 -0.0013420552 0.053636987 -0.11099791 -0.041954294 0.36615035 0.065618716 0.07930155 0.15109926 -0.05720442 -0.21108982 0.087929085 0.14268677 -0.16908163 -0.08248824 -0.250211 0.139117 0.07235042 0.040029764 0.15694171 -0.024844205 -0.13050896 -0.09659518 0.10913328 0.07187364 0.14472887 -0.24656522 0.10175452 0.032464094 -0.0891895 0.00097151287
868 -0.029709058 -0.0951495 -0.20817736 -0.07134319 -0.041538443 0.06337345 0.061809774 0.27083266 -0.20197429 -0.040815994 -0.09528094 0.20889929 0.026227972 0.004481468 -0.20598136 0.12997413 0.04153273 -0.056231983 0.02931462 0.229447 0.10199075 -0.1469521 0.0076633235 0.2492979 -0.055973783 -0.29318383 0.13562581 0.10568161 0.00093264214 0.35306156 0.12998733 -0.09567283 -0.22373383 0.1864611 -0.07731998 0.095123544 0.11105014 -0.34243053 -0.18647267 -0.16232021 -0.025264295 -0.25247273 0.32661322 -0.15088725 0.24287935 -0.094936915 -0.014994797 0.19109823 0.017814307 0.10163479 -0.020473627 -0.12807477 -0.43282145 -0.140967 -0.11795591 -0.01924037 0.294739 -0.06519927 -0.076507166 -0.06835094 -0.06687858 -0.028325139 0.0405404 0.32773373 -0.02672856 -0.26492772 0.017975414 0.19003665 0.030326555 -0.24685642 -0.06426109 -0.10049553 0.2826531 -0.19568217 0.3400312 -0.10905316 0.28093112 -0.23058519 -0.35150453 -0.06983099 0.10280181 -0.14554222 0.23389769 -0.16086683 0.066835284 -0.13438495 0.10843454 0.11491212 0.2660975 0.006729675 0.21770713 0.104003645 -0.18134047 0.023393927 -0.05159858 0.12896383 0.056386318 -0.096671164 0.17329268 0.09128495 0.02325097 0.06878882 -0.023590885 -0.009974515 0.14632657 0.027717104 -0.10626683 0.16270055 0.20417166 -0.043804128 0.11085255 -0.057341192 -0.057940338 0.022254225 0.082105316 0.27884787 0.25077823 0.016198287 0.18962254 -0.18387522 0.026565695 0.14220425 -0.056270726 0.0002357188 -0.055035662 0.068341956 -0.11379501 -0.10047957
875 -0.08407121 0.16330609 -0.122419536 0.10046613 -0.083784804 0.33518428 0.1963321 0.011019468 -0.022315312 -0.045522083 -0.0062197098 0.06044307 0.24590753 0.02433725 -0.19268584 -0.045801893 0.11100128 -0.25960433 0.31113258 0.087252505 0.1531882 -0.15383752 -0.06222107 0.03517905 -0.10564365 -0.1526045 0.23625039 -0.086831786 0.0703065 0.2609654 -0.033627886 0.08159145 -0.12816143 0.043136504 0.0030261665 0.058683608 0.1183529 0.061386365 -0.11108672 0.01257758 -0.16911653 0.020721665 0.16493446 0.14692314 -0.19691786 -0.3760458 -0.09356588 0.14555593 -0.15702541 0.045725238 -0.06468528 -0.100486435 -0.4076937 -0.050978173 -0.08044342 -0.028278677 0.064163975 -0.0010611013 -0.010525002 0.10798188 0.0278759 0.10281414 0.12729289 0.22309107 0.11776175 -0.031533416 0.09351636 0.15605822 0.045501772 -0.1633194 0.24203786 -0.1962111 0.2573206 -0.012145694 0.268189 -0.12480613 0.2186002 0.074296124 -0.2731791 0.08593084 0.009839125 -0.15845296 -0.1382114 0.11465403 0.031553462 0.010573648 -0.012547768 -0.10057475 0.3382105 0.06606465 0.08516025 -0.16835514 0.30615792 0.04168721 0.0674734 0.2979223 0.088479266 0.047197517 -0.05863821 0.13022372 0.18527518 -0.08925105 0.38006508 0.0015676819 0.09398356 0.06328945 0.12716497 -0.03512627 0.17644097 0.18747464 0.052520808 0.0407603 -0.27483454 -0.08167595 0.35517478 0.018525489 -0.026111983 -0.04086131 -0.1848259 -0.16626635 0.02429871 0.03007633 0.098556936 -0.15408412 -0.14063072 0.020698057 -0.13086762 -0.20401613
887 -0.098820694 0.14199348 -0.08707867 0.21527684 -0.15090892 -0.062314223 -0.0022813864 0.23535094 0.017721832 -0.08170632 0.11047287 -0.024021175 -0.19982623 0.1447082 -0.44493818 -0.12108642 0.19455478 -0.45942077 -0.064764924 -0.060721606 0.21597013 -0.43101883 -0.06027379 0.107856065 -0.4497811 -0.023434551 0.31656674 0.07989049 0.02008928 0.2142193 0.14078203 -0.008532234 0.054775465 0.0208254 -0.008991054 0.0090418635 0.28952575 -0.048701342 0.01034839 -0.03817703 -0.030956259 -0.075274505 0.3267659 -0.1700663 0.15894052 -0.0075200265 0.14435704 -0.049633913 -0.16906118 0.11242704 -0.08238759 -0.09095002 -0.24475177 -0.34943166 -0.2513923 -0.12343084 0.3279038 -0.064554036 0.04664578 0.111694396 -0.101041034 -0.02950808 0.22489214 -0.114537485 -0.09505037 0.114868306 -0.038489155 0.22670047 0.034440234 -0.28771544 -0.0699269 -0.04337589 0.19704495 0.055377148 0.061318696 0.114269815 0.10333816 -0.18370397 -0.12972733 0.13799709 0.04114095 -0.23564945 -0.07012986 0.05517718 0.14298177 -0.04358899 -0.038926996 -0.0942339 0.09066783 -0.04889319 0.06142631 -0.22431502 0.12895072 -0.0049783834 0.30530056 0.09342912 0.061515253 0.25819093 0.06276367 -0.06748175 -0.15030225 -0.0920257 0.044477392 0.15587229 -0.063997015 0.053339306 -0.20339403 -0.29672468 0.00889899 -0.021745797 -0.18187268 -0.12992801 -0.12837453 0.06637673 -0.026854284 -0.09811145 0.048170485 0.09088682 -0.050849598 -0.058489356 0.25960812 0.03362667 0.02892797 -0.21752532 0.16148955 0.08515049 -0.10039373 0.08792602
892 -0.17306691 0.31954208 0.18845111 0.4028065 -0.171239 0.10752206 0.24380796 0.07441786 -0.3472723 -0.027671432 0.11309596 -0.13289014 0.09367772 0.0660575 -0.29280257 -0.18207274 0.24048163 -0.39813662 0.0801981 -0.27067083 -0.013089284 -0.2767393 -0.17047343 0.03055898 -0.3276466 -0.042721253 0.26067433 0.0073858076 0.19445434 -0.001261863 0.06630316 -0.19742903 0.25351495 -0.32870972 0.15378731 -0.01934816 0.14006597 0.26562026 -0.074536026 0.10861654 -0.19836807 0.07097204 0.19088496 -0.054464906 -0.02685134 -0.06188334 0.098533705 -0.052533206 -0.168176 -0.2753111 0.091320485 -0.11912955 -0.17278428 -0.24807712 -0.3694159 -0.20098041 0.10840425 0.015543091 -0.22032551 0.10757528 -0.00421336 -0.101506986 0.07415181 -0.14448151 0.09319749 -0.047027268 0.2749295 0.39971521 0.09834988 -0.024531754 0.31345353 -0.050374515 0.29696393 0.12902139 0.39216435 -0.01602582 -0.009577534 -0.1132201 -0.17109016 0.086371124 0.1498938 -0.30015492 0.14433579 -0.20610921 0.28948656 -0.20699334 -0.21060608 -0.0010601957 0.19038542 0.2587251 0.0026561706 0.14261648 0.16787 -0.20265472 0.22079724 0.2936184 -0.041639894 0.08318884 -0.051051755 -0.06432339 -0.03100344 -0.059409108 0.26756352 0.13383263 -0.061563592 -0.103434764 0.018215979 -0.22263376 0.0050123706 0.085763924 -0.089713864 0.11807263 -0.13660048 -0.08103924 0.04499326 -0.19882831 -0.028127301 -0.043263946 -0.10034533 -0.054011445 0.033613313 -0.122136325 -0.044436183 -0.15666191 0.14311154 0.13669227 -0.09896056 -0.062181383
907 0.10992095 -0.22623117 -0.093109794 -0.081658795 -0.108832344 0.094245255 -0.010943349 0.3485546 -0.23909466 -0.10451608 -0.09922097 0.41060442 0.19044387 0.06470712 -0.2318644 0.12619807 -0.07092941 -0.0017047626 -0.07224794 0.25135085 0.31713036 -0.28270552 -0.052069142 0.31346604 0.03164528 -0.30347297 0.041377284 0.020348307 0.0740466 0.45014995 0.04873891 0.044912264 -0.26432052 0.1971744 0.16308677 0.25957346 -0.054341204 -0.44577926 -0.34949133 -0.13612 -0.06961924 -0.4654239 0.3963497 -0.13982794 0.10875121 0.03946747 -0.023595603 0.3943343 0.10047165 0.05779145 0.12149067 -0.24697578 -0.5495656 -0.104733504 -0.20001136 0.0015373628 0.2637275 -0.10557175 0.059650164 -0.25178263 -0.07236393 -0.112561576 -0.039103657 0.34572157 0.011831034 -0.4039402 0.059183575 0.20459478 -0.047799848 -0.13839106 0.26901498 0.01696991 0.19741867 -0.46623158 0.31083354 -0.050899446 0.43817067 -0.30926177 -0.42348385 -0.13006595 -0.09527176 -0.33835658 0.28061503 0.08218338 0.18895465 -0.13972151 0.32362887 0.124312125 0.23107278 0.01345887 0.29964387 0.23068738 -0.26079527 0.13187706 -0.040421207 0.10385685 0.08850172 -0.17802507 0.13833392 0.13614796 0.078520596 0.15616408 0.21555881 0.082513966 0.33541703 -0.029928999 -0.066055834 0.28628987 0.15686844 -0.051531162 0.4377446 0.1452853 -0.13931897 -0.025011448 0.052305326 0.32921764 0.3205047 0.062009744 0.24919061 -0.17155345 -0.10417275 0.050078012 -0.013167429 -0.057940647 -0.12034321 0.050483108 -0.1828826 0.012490592
899 0.19879706 -0.4294878 0.0635698 -0.014376155 -0.10340282 0.08239846 -0.0052671055 0.41859287 -0.35334882 -0.07366451 -0.050147295 0.56938696 0.25590527 0.11622403 -0.29130566 0.009655163 -0.09921362 -0.0056343325 -0.3012133 0.32401305 0.5187234 -0.5014086 -0.0006608043 0.5306126 -0.0900943 -0.24381581 -0.0054319967 -0.043588243 0.20416902 0.4548155 0.07941517 0.2318507 -0.23918043 0.041465413 0.31453776 0.29312012 -0.1957873 -0.49495926 -0.43050835 -0.10274919 -0.023556344 -0.6558182 0.49426553 -0.17545624 0.0021799458 0.2082286 -0.0030769156 0.40429622 0.1957219 -0.016486976 0.25189418 -0.39792162 -0.58231866 -0.031856935 -0.35744482 -0.021203298 0.18566161 -0.23964441 0.17195456 -0.5258368 -0.12403168 -0.33151528 -0.10012025 0.29102358 -0.017487157 -0.4975264 0.13627037 0.37721133 -0.15405226 -0.07046027 0.6526534 0.18306385 0.01650273 -0.73489803 0.35886645 0.04412205 0.5652587 -0.36819217 -0.46364298 -0.14007886 -0.29599667 -0.6504078 0.44828388 0.21984684 0.3297486 -0.22347619 0.53865516 0.27356976 0.23860551 -0.008508616 0.4944603 0.34215546 -0.3570435 0.2190028 -0.05135848 0.12302615 0.122674465 -0.26238376 0.16323659 0.12852503 0.024515461 0.1588149 0.48934823 0.18709843 0.43824166 -0.09061176 0.048785992 0.4079603 0.13083328 -0.1296565 0.70573807 0.3447398 -0.27794218 -0.041472092 -0.093171254 0.42420775 0.33073196 0.18107468 0.374612 -0.1786827 -0.20691003 -0.17493308 0.008081775 -0.019897344 -0.07465704 -0.038891725 -0.2399087 0.16115141
850 -0.22604033 0.15591381 0.08752673 0.13894166 -0.108995885 -0.08382703 0.10293053 0.2820615 -0.28677133 0.013155894 -0.14898403 0.07585112 -0.07243756 0.1386905 0.08956338 -0.20758763 0.4164841 -0.19573116 -0.07003342 -0.08310896 0.074097686 -0.5818372 0.11090338 0.32010671 -0.21595703 -0.38030276 0.30776533 -0.014988626 0.19839078 0.18857066 -0.036893096 0.0077361586 -0.108473845 -0.4430755 -0.15114045 -0.25925672 0.006180329 0.26056555 -0.32156023 0.08013635 0.029625222 -0.10031242 0.0110627515 -0.20930646 0.023391636 -0.20299824 0.14086069 0.06068376 -0.31693372 -0.26942417 0.078039005 -0.27063307 -0.24298365 -0.19962087 -0.3798465 -0.062003326 0.34324545 -0.12700553 -0.11896729 -0.12252 -0.05108938 -0.16867346 0.20464583 -0.073202744 0.0131343575 0.019177891 0.123827145 0.117670104 0.008232088 0.0059669763 0.16967852 -0.06219261 0.020242149 -0.17104375 -0.014961493 0.11587968 -0.076045364 0.15022375 0.07466322 0.18953824 -0.17331725 -0.16719034 0.0019436256 -0.21569337 0.16088651 -0.11405891 -0.06645775 -0.052130584 0.13150069 -0.07170233 -0.10086386 -0.058850653 -0.12748875 -0.019625703 0.24608485 0.2588318 0.050579954 0.07437986 -0.19406675 -0.01141869 0.23321176 -0.07355727 0.4713811 0.36275294 0.35579267 -0.410842 -0.2769809 -0.15715137 -0.25711364 -0.32082808 0.049109925 0.3270081 -0.2497209 -0.18767934 0.051801458 -0.08162717 -0.11689272 0.072648235 -0.22432284 -0.14052199 0.10687181 -0.22464201 0.04342951 -0.16485876 0.12703107 0.2723956 0.018723842 -0.07519368
914 0.093062855 0.102511235 -0.08202037 0.29422998 -0.11171209 0.07654801 0.025290316 0.030499035 0.046099134 -0.102241084 0.36038858 -0.011212622 -0.057035822 0.14403936 -0.4274768 -0.18810704 0.08135069 -0.45372522 0.1375177 0.024366075 0.096891895 -0.10413951 -0.20912568 -0.32971013 -0.26283747 -0.16293217 0.10968067 -0.089727186 0.1773271 0.20513594 0.18403317 0.2352791 0.036655508 0.073669136 0.14028695 0.14072858 0.24997395 -0.004832384 -0.1873873 -0.08940268 -0.3267309 -0.13367777 0.2995738 0.15562946 -0.0021291738 -0.051646605 -0.05087316 0.1526863 -0.2036298 0.079509 0.0843388 -0.11639809 -0.44045606 -0.48711967 -0.22638856 -0.2898634 0.15305571 -0.082319856 -0.04358803 0.14517635 -0.20954849 0.02060867 0.056770995 0.030858187 -0.056007836 -0.006230599 0.2537894 0.394581 0.07815123 -0.22639853 0.34623665 -0.14305244 0.2932717 0.13500598 0.14377177 0.043656316 0.19662437 -0.13490221 -0.4671912 0.072404586 0.13735278 -0.23023078 0.039546244 0.27815342 0.4256041 -0.076416135 -0.061137073 -0.11700077 0.033227306 -0.08866844 0.040078174 -0.07713414 0.28425974 -0.107886225 0.3677417 0.057564583 0.0057007307 0.040053 -0.13933896 0.20074022 -0.11687832 -0.02396316 0.4124956 -0.06898427 0.05169696 0.16827345 -0.064782694 -0.27383628 0.02492221 0.28285056 -0.10959766 -0.0917184 -0.41383415 0.020800527 0.20044357 -0.058473907 0.24657814 -0.054269623 -0.07630481 -0.09663618 0.10927197 0.06945918 0.14445291 -0.18885094 0.041136056 0.008275893 -0.1652984 0.0015839001
910 0.114915125 -0.04494325 -0.030114518 0.13019933 -0.051597536 0.040484004 -0.06622454 -0.040373713 0.102646306 -0.11104772 0.13757062 0.03428153 -0.044440858 0.040236145 -0.31265765 -0.066615105 -0.058351908 -0.122352496 0.035125192 0.03788321 0.031827703 0.084852405 -0.14375527 -0.2664234 -0.024856022 -0.08390355 -0.09037897 0.051523704 0.14321932 0.19848488 0.1936646 0.08380151 0.004909929 0.272134 0.12230851 0.18298376 0.28959388 -0.13182557 -0.2844978 -0.08473279 -0.19146365 -0.17662239 0.3194251 0.0753092 0.32926294 0.005868307 0.017268922 0.23118336 -0.023201857 0.019739574 -0.0163795 -0.061122105 -0.5415716 -0.40925756 -0.137438 -0.12769471 0.3003296 -0.1323268 -0.1737581 0.08921015 -0.13735871 -0.008837218 0.13023217 0.083716914 -0.026657816 -0.20098376 0.062038306 0.25305346 0.028058695 -0.17481796 -0.02839687 -0.13622324 0.30766934 -0.0841264 0.17770259 -0.023904938 0.24902463 -0.31913295 -0.50121087 -0.08802595 0.13382646 -0.2853467 0.1306101 0.15347394 0.34082606 -0.1526966 -0.033131864 -0.05802347 0.018266661 0.010586595 0.091995284 0.1665268 -0.016170904 -0.062521145 0.24985227 -0.10652178 0.020795383 0.057297096 -0.029511176 0.09606086 -0.09699903 0.07136558 0.21954437 0.04649916 0.14829466 0.09121 -0.2969436 -0.12822987 0.087775216 0.10572968 -0.013984209 -0.050935186 -0.08883086 0.09721177 -0.04223919 0.04190506 0.29178634 -0.055261515 0.06612728 -0.16018245 0.044374198 0.24460477 0.11891834 -0.2841113 0.1582759 0.09860955 -0.12478694 0.03127858
906 0.1704177 -0.31321272 -0.029406596 -0.050577577 -0.105627395 0.09214382 -0.007033619 0.3673489 -0.26849967 -0.10588888 -0.057381168 0.46219066 0.18947758 0.08718761 -0.28073245 0.076854795 -0.12167691 -0.01489178 -0.18192595 0.27552783 0.3973316 -0.33696392 -0.0254806 0.38321543 -0.03162625 -0.25180012 0.012217351 0.0093781045 0.121163845 0.43674576 0.07703995 0.13724844 -0.23340265 0.16669719 0.23381995 0.2867894 -0.106664725 -0.4837931 -0.3634465 -0.1350318 -0.06610724 -0.5304184 0.4496581 -0.13599522 0.07128279 0.13775517 -0.042405922 0.37919003 0.17011362 0.052863587 0.16858466 -0.3001183 -0.555284 -0.08665586 -0.26485953 -0.01796858 0.21141735 -0.15594445 0.11470466 -0.3650009 -0.106128775 -0.21434651 -0.076870844 0.33458874 -0.023153074 -0.4464828 0.09301716 0.2835592 -0.09961101 -0.12290664 0.43211788 0.11471143 0.12465963 -0.57888585 0.32894588 -0.01702629 0.49239147 -0.34549436 -0.44962984 -0.121800005 -0.16582078 -0.4645924 0.35225627 0.17374474 0.24379097 -0.18367578 0.41675645 0.19133182 0.21978004 -0.007749672 0.39694834 0.27817377 -0.3026962 0.15926296 -0.050239895 0.082283735 0.09389971 -0.1940095 0.15558532 0.124706745 0.01939305 0.1709615 0.28402212 0.108657196 0.34794047 -0.029367412 0.007371253 0.34422258 0.17158005 -0.054326467 0.5271684 0.20316435 -0.19309674 -0.0071798195 -0.024365805 0.3707758 0.340201 0.112600744 0.32840508 -0.16377443 -0.138002 -0.01783923 -0.005017697 -0.03320546 -0.08891096 -0.02034652 -0.21737707 0.084124155
946 -0.43949178 0.07012096 0.030800113 0.18835227 -0.0075645163 -0.073593214 0.13371919 0.042814206 -0.26007465 0.4159819 -0.06530611 -0.0044053774 0.25905675 -0.026239444 -0.043908935 0.05226452 0.49168944 -0.0646344 -0.04495754 0.037328772 0.08534511 -0.5348268 0.1720714 0.24694185 -0.057801142 -0.11473096 0.2213272 -0.06916831 0.14993131 0.14734015 0.12755974 -0.16189213 -0.029451702 -0.286053 0.0044348515 -0.11994825 0.09621931 0.2871634 -0.115125425 0.20914063 0.04977221 -0.0602841 0.0723453 -0.18117896 -0.08195079 -0.39246783 0.3033136 0.087955825 -0.436712 -0.31894436 -0.024650123 -0.035131644 -0.12188814 0.08745789 -0.1866346 0.0369288 0.19138229 -0.006212752 -0.01732177 0.082537785 0.22531451 0.058595527 0.24344735 -0.17272654 0.13193679 -0.3008928 0.046737216 0.16934419 -0.030656204 -0.20118572 0.2110652 -0.3496155 0.15691508 -0.053757057 0.42706725 0.2952399 0.31845182 -0.008630168 -0.15203655 -0.122653514 -0.22990355 -0.52073884 0.07541537 -0.28847736 0.14587127 0.067832455 -0.06339265 -0.11633641 0.17000742 0.25687164 0.078854136 -0.33988646 0.14817928 -0.062629215 0.14255816 0.31048885 0.05677686 -0.015200227 0.025892546 -0.28064933 0.112283826 -0.12810065 0.65014154 0.20723651 0.1267496 -0.07024798 -0.14371064 -0.16824687 -0.17474742 -0.2590722 0.22736578 0.10411453 -0.044600766 -0.29057443 0.12578486 -0.17844638 -0.28392985 -0.08370059 -0.022311365 -0.13675402 0.05535572 -0.38883692 -0.054943394 -0.13330607 -0.124795124 0.3225743 -0.0005171722 -0.06129254
895 -0.07545345 0.19660819 -0.11880529 0.116027065 -0.11504648 0.27141413 0.2151029 0.05705231 -0.07066077 -0.13022691 -0.020830566 0.018546008 0.14690149 0.03907641 -0.2000734 0.016219923 0.11128922 -0.2729331 0.2519853 -0.036194853 0.10543648 -0.11368685 -0.12524661 -0.036160756 -0.066426955 -0.11370122 0.26027063 -0.004677109 0.08053628 0.25718096 0.026059689 -0.0088653695 -0.0054271175 0.060298625 -0.011140292 0.14918832 0.15281919 0.052004278 -0.1280566 0.024366627 -0.2597185 0.055437297 0.22160615 0.11201417 -0.094399065 -0.3304333 -0.050123032 0.12259438 -0.21351165 -0.012571322 -0.084286995 -0.08358036 -0.39648846 -0.13424137 -0.14295836 -0.032385506 0.13462129 0.017945552 -0.09087451 0.21200797 0.00086284906 0.0831125 0.14761233 0.12874195 0.122487664 -0.074437566 0.12814103 0.19225247 0.12552418 -0.19615659 0.17910194 -0.19390512 0.3529481 -0.016006224 0.20314355 -0.122815415 0.19598281 0.027568405 -0.29541942 0.107356474 0.101670265 -0.15960881 -0.1399905 0.10042865 0.08675514 -0.0024209775 -0.13387531 -0.16604738 0.2735452 0.09338931 -0.0069674314 -0.05582523 0.30634847 -0.03632414 0.13031526 0.2819555 0.052839015 0.11977278 -0.05248418 0.050432846 0.22971046 -0.041265108 0.28087243 0.008801726 0.079888895 0.072497 0.03302459 -0.09897556 0.16872117 0.21975102 -0.09242624 -0.013957703 -0.2184412 -0.106842935 0.2992682 -0.018091734 0.030232998 -0.10083944 -0.18083009 -0.17901216 0.05557249 0.06542452 0.07590994 -0.19850568 -0.06354328 0.07675965 -0.07953612 -0.16459805
898 0.20811792 -0.46382618 0.108663455 0.03036231 -0.10868023 0.111578785 0.009784616 0.43879673 -0.3767497 -0.05689486 -0.053038012 0.61036086 0.2886599 0.12159655 -0.3201359 -0.024351254 -0.08249317 -0.039345376 -0.3404524 0.3321953 0.5761 -0.57461953 0.005821699 0.5769039 -0.114229545 -0.23021688 0.008531406 -0.07579438 0.25154623 0.47251585 0.09046842 0.27678058 -0.22361763 -0.019631462 0.36075065 0.2969214 -0.23779319 -0.4755633 -0.4682049 -0.07387148 -0.03874632 -0.70839554 0.5257516 -0.18297744 -0.03254536 0.22254789 0.013324728 0.43293872 0.17659351 -0.060025066 0.28804797 -0.44091305 -0.6316323 -0.044156663 -0.41752866 -0.037168022 0.17969786 -0.284572 0.1876448 -0.5873372 -0.13678136 -0.3891359 -0.08924455 0.26449168 -0.026843973 -0.524494 0.16438626 0.46464965 -0.17465784 -0.07930435 0.77961075 0.1889265 -0.02236038 -0.7978549 0.390335 0.07364581 0.62446684 -0.37003097 -0.4924858 -0.118126996 -0.36600575 -0.779555 0.47326833 0.2570325 0.40802902 -0.26232737 0.5675686 0.2848517 0.26319578 -0.001362402 0.5355116 0.35034308 -0.33002523 0.23336577 -0.017798437 0.15456416 0.13677812 -0.26427087 0.15883856 0.1191216 0.022802332 0.14993784 0.63877374 0.23327899 0.48963025 -0.116123036 0.068987064 0.4017064 0.12187886 -0.14574438 0.7726137 0.40638208 -0.3423649 -0.0513355 -0.11112762 0.4371195 0.32002333 0.18760599 0.3817886 -0.19452094 -0.22084838 -0.24629012 0.013419097 -0.04690508 -0.06308288 -0.03268659 -0.25233218 0.17434932
900 0.1504469 -0.42553315 0.07294166 0.001355741 -0.12272116 0.091496706 0.025320766 0.44867066 -0.40311614 -0.059771262 -0.071992695 0.58334523 0.246549 0.12336664 -0.30755058 -0.010941977 -0.035883427 -0.02899163 -0.3135559 0.3252745 0.5293552 -0.56599575 0.009175178 0.58021575 -0.11456077 -0.26325703 0.037115946 -0.054070767 0.22461544 0.48127735 0.096874475 0.21913466 -0.2273565 -0.022751927 0.31422797 0.26886994 -0.18729919 -0.469345 -0.47059616 -0.08512386 -0.021492522 -0.68420815 0.52417076 -0.21667202 0.029116387 0.17228648 0.028532092 0.4144834 0.1420431 -0.07188942 0.26042125 -0.4493013 -0.6242584 -0.054057643 -0.41267848 -0.037326876 0.2330423 -0.25461805 0.14811474 -0.54075927 -0.12549852 -0.36576194 -0.057107102 0.2671414 -0.008629991 -0.5150221 0.14924979 0.4529273 -0.1558912 -0.11082595 0.6775789 0.16101122 0.036273573 -0.7646223 0.4119046 0.05588719 0.5950655 -0.38464606 -0.50275826 -0.12836815 -0.32005763 -0.7417756 0.47153914 0.16938563 0.36509565 -0.27957538 0.53440666 0.27472475 0.2950522 0.01738544 0.51326805 0.33929724 -0.3548603 0.21597745 -0.014890866 0.19528827 0.13681601 -0.25431645 0.15881284 0.1137519 0.047296837 0.13860378 0.5818926 0.23635 0.45636258 -0.12584195 0.024056247 0.37652904 0.11730328 -0.17755571 0.71716994 0.37851694 -0.32112178 -0.075375974 -0.08940617 0.4225153 0.3108934 0.17553581 0.38140032 -0.21216543 -0.19406307 -0.21229711 -0.00049000274 -0.047743097 -0.046347786 0.008771593 -0.24179402 0.15130933
57 -0.22304393 0.076798424 -0.047326487 0.11265904 -0.123913094 -0.085283644 0.24844196 0.009820675 -0.26382333 0.16857101 0.06739359 0.080932125 -0.07923045 -0.0902576 -0.10843972 -0.36970052 0.2869191 -0.09638979 -0.11908548 0.076954514 -0.13822342 -0.19404855 0.12092919 0.14651203 -0.16921541 -0.29620415 0.16563089 -0.05520397 0.04003996 -0.039880533 -0.22933376 -0.081500314 -0.15847278 -0.5317063 0.060644094 -0.2254274 0.3615793 0.18721054 -0.22655989 0.13754338 0.26744685 -0.04402506 0.05793099 -0.17507921 -0.050824367 -0.34294567 0.2331276 -0.087042525 -0.31762296 -0.38277608 0.18439475 -0.24593323 -0.29867488 -0.3323768 -0.3862093 0.029239194 0.3003198 -0.027060995 -0.15858014 0.033224236 0.080584034 0.17113587 0.40777567 -0.06247733 0.04090308 0.04151798 0.16433643 0.40797842 0.022165585 -0.23056838 0.24009117 -0.14949714 0.15809909 0.06917286 0.35277393 0.08645508 -0.06618807 -0.008793579 -0.23658182 0.16887352 -0.18347988 -0.4212699 0.10385363 -0.24124436 0.24775673 -0.32149866 -0.026762394 0.12733188 0.13457388 0.2609438 0.08804681 -0.285684 0.00792907 -0.1674136 0.24494506 0.27465105 0.18047926 -0.14653474 -0.17609508 0.09063786 -0.029940529 -0.19663744 0.30990922 0.083799414 0.027064545 -0.027769865 -0.25807625 -0.26111546 -0.09597962 -0.1548456 0.043127917 0.35687017 -0.15546943 -0.16916241 0.11355084 -0.15233307 -0.18578623 0.014372181 0.0144772595 0.04652759 0.28077433 -0.14157358 -0.00067905034 -0.05471471 0.10871943 0.23912378 0.031360276 -0.015819503
885 -0.052607704 0.116900146 -0.079807185 0.21672662 -0.10626183 -0.004563794 0.087384544 0.16177952 0.0005323108 -0.12584706 0.13776396 -0.011671513 -0.15513736 0.10684012 -0.3720708 -0.13630906 0.16653681 -0.4142504 -0.0073296707 -0.053319126 0.1491057 -0.29545125 -0.08364484 -0.021051569 -0.32844976 -0.061108995 0.25416774 0.036087126 0.07177676 0.23821595 0.14772089 0.021005735 0.07640693 0.022992115 0.031557705 0.069020495 0.26608106 -0.032541923 -0.062392578 -0.030138845 -0.14349246 -0.03842553 0.28981104 -0.055344865 0.10480536 -0.054131128 0.06788527 -0.0024555866 -0.19029139 0.051445067 -0.05573156 -0.10567496 -0.30696037 -0.3385239 -0.25261596 -0.093809135 0.26477847 -0.09653408 -0.034269843 0.14460987 -0.11603059 -0.009477348 0.19699235 -0.059769385 -0.06150966 0.0073723574 0.016280618 0.2602644 0.057637826 -0.27217644 0.0156012075 -0.07491709 0.22050154 0.009901209 0.096708074 0.04561519 0.11178398 -0.14867592 -0.22162347 0.12878281 0.053195 -0.20727636 -0.053626038 0.061013795 0.14180374 -0.08207631 -0.06329803 -0.103404626 0.08230573 -0.0033224185 0.041449133 -0.11898328 0.11202361 -0.04823501 0.2525238 0.07693048 0.051616196 0.20797889 0.012352535 -0.02246963 -0.11202954 -0.06289349 0.12528451 0.07538789 -0.002429535 0.12007518 -0.15380284 -0.26831958 0.05807806 0.10310982 -0.20804533 -0.08191212 -0.16654767 0.04033547 0.035438273 -0.05450008 0.100108966 -0.0018352033 -0.024680126 -0.07116418 0.20509137 0.038070727 0.0642797 -0.19003274 0.11718189 0.059802834 -0.09128565 0.046466745
39 0.031169001 0.14354041 0.14281894 0.46763605 -0.14021571 0.2244476 0.15962592 0.06591461 0.025716256 -0.22159421 0.112022884 -0.092183344 -0.092661 0.09886869 -0.55629796 -0.26207238 0.09526976 -0.4964156 0.17316104 -0.0683894 0.16444018 -0.225431 -0.14881025 -0.20872073 -0.33475634 -0.07595828 0.14235927 -0.07156357 0.2627037 0.2387219 0.24616668 0.058215246 0.115437694 -0.020707244 0.31226182 0.18354534 0.13970424 0.07678735 -0.08094268 0.039129775 -0.2617305 -0.01865509 0.33576798 0.18189888 -0.06738507 0.031882964 0.009161559 0.062975906 -0.13834381 0.08432571 0.016737204 -0.026299866 -0.5274852 -0.50246984 -0.34968242 -0.20801283 0.07085825 -0.20837222 -0.13507755 0.048098404 -0.1199808 -0.11730344 0.21517581 -0.06920788 -0.07482404 -0.036370706 0.16495442 0.40446168 0.00275379 -0.25357336 0.32662275 -0.025083916 0.21583124 0.07202202 0.22537106 0.057930984 0.2188417 -0.20241126 -0.35784987 0.2539848 0.11019448 -0.39591947 -0.114380136 0.28775147 0.49685425 -0.17770134 -0.010251711 -0.11113696 0.10104307 0.029139973 0.11127344 7.640825e-05 0.3305176 -0.030254448 0.34081432 0.063101426 0.080307655 0.30544728 -0.043838903 0.094228774 -0.26089376 -0.053956654 0.52164465 0.1733262 0.072871484 0.10294938 -0.08006716 -0.2575041 0.10987692 0.2609915 -0.1278378 -0.063213095 -0.19900566 0.16614443 0.023422025 -0.11612452 0.1964087 -0.01220616 0.02714886 -0.056793462 0.090526834 -0.04700828 0.19600089 -0.31836715 0.17910703 0.12414911 -0.1848715 -0.072827585
19 0.068474494 -0.16843195 -0.122111805 -0.09362404 -0.09911696 0.06555916 -0.004446832 0.34405595 -0.21725205 -0.09250342 -0.08890406 0.3637942 0.14536309 0.05231374 -0.21631944 0.132204 -0.053007647 -0.014117088 -0.07380253 0.24036647 0.27537945 -0.2626962 -0.041575875 0.32487476 0.010764523 -0.31440327 0.06778735 0.036205623 0.020310141 0.4350566 0.037790447 3.7179037e-05 -0.27321035 0.21822599 0.105223626 0.22528642 -0.0053896504 -0.4385781 -0.28012365 -0.15055856 -0.03398572 -0.4131514 0.35656407 -0.14780654 0.1272097 0.018897973 -0.0062846383 0.3450696 0.10037868 0.07887205 0.070604846 -0.21900798 -0.4836506 -0.08099578 -0.17404774 0.0065886853 0.27014652 -0.06132693 0.06662794 -0.19811209 -0.0432802 -0.07420311 -0.023972966 0.34906083 0.0020827572 -0.3815453 0.040441375 0.15082702 -0.033289064 -0.15056849 0.18290639 0.009052345 0.21744102 -0.42145225 0.31139532 -0.049694587 0.3956016 -0.30439582 -0.39461306 -0.10593224 -0.07001073 -0.26917467 0.24673484 0.03753121 0.13038105 -0.11876082 0.27618575 0.1150179 0.21398112 0.006148072 0.27930865 0.17382096 -0.26147893 0.1143342 -0.05531737 0.1179206 0.091547005 -0.15478556 0.15110603 0.113409676 0.091026396 0.14516437 0.10444833 0.058108885 0.27494204 -0.018634805 -0.05902412 0.27088228 0.16704379 -0.05332734 0.37233058 0.102834344 -0.09619045 -0.027312445 0.068629004 0.27766618 0.27951235 0.06494073 0.24113184 -0.15980858 -0.07517463 0.06897644 -0.01114962 -0.029373765 -0.12679793 0.042038616 -0.18111102 -0.0030453983
881 -0.3279068 0.000116825235 0.024039933 -0.14779316 -0.16297449 -0.25490516 0.07627974 0.060279373 -0.3588776 0.14454968 -0.06467652 -0.032260258 -0.11979553 0.09546926 -0.01597754 0.040812053 0.38309088 0.095079586 -0.17098983 0.005826204 -0.08922554 -0.27846658 0.1032677 0.2565499 -0.07492218 -0.130327 0.18223383 0.121986374 -0.009656963 0.0069526564 0.032942943 -0.15146922 0.09942603 -0.2176186 -0.08699557 -0.07818999 0.3566507 -0.006592869 -0.15623385 0.030210758 0.16768286 -0.19162628 0.14947437 -0.44529802 0.37012646 -0.15280223 0.23755707 0.017403103 -0.23846608 -0.3061815 0.0912115 -0.25300187 -0.063365005 -0.05371587 -0.22933964 -0.026710639 0.3434667 0.077700235 -0.15971515 0.031689342 0.014367227 0.004369416 0.1435224 -0.084954 0.18291748 -0.19775744 0.03385042 0.18405 0.094427064 -0.17931537 -0.10049349 -0.03664018 0.260126 -0.17639656 0.28143778 0.0434941 0.058634106 -0.13235414 -0.20104958 -0.17940283 -0.0784082 -0.35206008 0.27887562 -0.4370338 0.07235443 -0.17876866 -0.08603231 0.1492946 0.2535988 0.26640323 0.104985 0.11386036 -0.36198893 -0.039761987 0.0712983 0.37514386 -0.03333885 -0.03791853 0.014598866 -0.14419402 0.20468372 -0.07375093 0.10373166 0.13837978 0.08779038 -0.19332896 -0.2563958 -0.041354712 -0.008543571 -0.36291435 0.094330795 0.1434738 -0.1470156 -0.32801244 -0.018916141 -0.006760677 -0.080113575 0.012161545 0.08254824 -0.20589417 0.061881594 -0.06046711 -0.12043646 -0.011705845 0.14362061 0.30733767 0.11574069 0.027847664
33 0.07169907 0.05822867 -0.054688238 0.41326234 0.030786086 0.21245036 0.20043832 0.039861687 0.0032310279 -0.19468324 0.08686722 0.04226564 0.032990277 0.057542216 -0.43683892 -0.12807973 0.07612592 -0.42797992 -0.022622714 -0.10843337 0.1966549 -0.23530537 -0.21103576 -0.1580307 -0.2494912 0.039722282 0.18921442 0.06614829 0.24273792 0.2670153 0.21199876 0.107185125 0.10314412 0.12013662 0.04961937 0.14056852 0.13722289 0.06370446 -0.18819319 0.07092944 -0.2997799 0.031587236 0.32488495 0.11831891 0.0103788385 -0.09043247 0.008249047 0.083483025 -0.15040173 -0.037329536 -0.057849966 -0.0067517064 -0.45215067 -0.31431997 -0.26616737 -0.026014805 0.16396159 -0.2275937 -0.11357275 0.20498262 -0.10360391 -0.050202705 0.18382758 -0.0886755 -0.015386343 -0.16102616 0.1279809 0.37796548 0.04566759 -0.26191574 0.22669327 -0.15699387 0.18444258 -0.0632377 0.15562946 -0.02822568 0.15707643 -0.01587431 -0.30918956 0.17171043 0.034624025 -0.36755127 -0.11248635 0.26956183 0.24775699 -0.042636994 -0.14006966 -0.15591079 0.03161609 0.11332475 0.08924373 0.05098971 0.30103615 -0.14615008 0.20911452 -0.008234404 0.025090985 0.21351172 0.026686117 -0.0492761 -0.06798898 0.0121051 0.32813022 0.05114304 0.12033111 0.19846123 -0.05081471 -0.22479533 0.12500986 0.24405372 -0.2429809 -0.014255228 -0.07910826 0.101317406 0.009936756 0.013429487 0.07860126 -0.11732126 -0.06502501 -0.076884 0.08097644 0.027083574 0.15902865 -0.28126326 0.07456568 0.0030097454 -0.07943144 0.03438082
862 -0.24397199 0.14519992 -0.0058866236 0.020625556 -0.04422053 0.0065329135 0.08987118 0.24339789 -0.039401766 -0.063261 0.052253537 -0.011268698 -0.053534623 0.011640312 0.07258781 -0.23755968 0.31532693 -0.22100605 0.07278849 -0.04473864 -0.039095595 -0.26998565 0.005462288 0.2913784 -0.15670983 -0.18048252 0.21576728 0.008169699 -0.09765321 0.14312238 -0.09081527 -0.16217913 -0.14404644 -0.19083047 -0.18332997 -0.303584 0.112018615 0.1433664 -0.12655649 0.075617135 0.17130908 0.06219071 -0.012181055 -0.0037080317 0.1923697 -0.17599331 0.05749389 0.08853581 -0.20629202 -0.22008899 0.03707581 -0.28141662 -0.19929437 -0.0667686 -0.16326226 -0.17168005 0.26348305 -0.036280084 -0.19617994 0.07868278 0.00055749825 -0.023886258 0.23869233 -0.111688696 0.016187213 0.022887263 0.06363355 0.18980752 -0.010017307 -0.15596083 -0.06769094 -0.23949787 0.26090378 -0.024971021 0.2679919 -0.019179253 -0.0015673833 -0.056703035 -0.14947337 0.29662955 -0.099967256 -0.17145392 -0.102391645 -0.39716032 0.08448873 -0.18499322 -0.18044543 -0.044237707 0.36573717 -0.061002623 0.037238784 -0.22455017 -0.05145702 0.023409203 0.36120853 0.51752657 0.10461091 0.08199429 -0.028939473 0.012835855 0.29352853 -0.029603574 0.3777592 0.20920902 0.2092782 -0.22873163 -0.17347002 -0.27557537 -0.007877005 -0.2100899 -0.033680495 0.30018225 -0.17704827 -0.16033478 0.23987584 -0.107226275 -0.17028436 -0.016574008 -0.22644377 -0.08286608 0.11024334 0.030086888 0.08279986 -0.24292627 0.16151342 0.22460462 0.025230441 -0.1772177
60 -0.20633738 0.16882317 0.07117765 0.12902477 -0.1557417 -0.04071139 0.09430058 0.23489855 -0.22805452 -0.009355527 -0.1485063 0.0469306 -0.07093551 0.15448679 0.014154667 -0.20071623 0.36854395 -0.20364814 -0.0068625063 -0.08394258 0.078341916 -0.48607114 0.054221865 0.24193512 -0.2323183 -0.318891 0.29949299 -0.0082775 0.19330268 0.16013435 -0.05426943 0.000408706 -0.099493824 -0.36241412 -0.13205948 -0.19284132 0.031581864 0.23309076 -0.28974316 0.07605732 0.0076993112 -0.088854015 0.04819068 -0.15039086 0.045484565 -0.20561443 0.118377686 0.04993262 -0.26118353 -0.2086808 0.04706168 -0.2491684 -0.251507 -0.24093822 -0.31711757 -0.07618476 0.30643377 -0.099139154 -0.111708425 -0.08597535 -0.05509094 -0.13021515 0.224197 -0.07360207 0.024992278 0.07385244 0.14631198 0.14030804 0.02021342 -0.07516627 0.13716233 -0.071541816 0.08821099 -0.09607327 0.0027564045 0.08916986 -0.0529368 0.08490845 -0.0027465734 0.21283403 -0.11751362 -0.17233893 -0.028860979 -0.13959306 0.1901432 -0.14323974 -0.06863217 -0.0980776 0.15761694 -0.07629565 -0.10042393 -0.07717234 -0.063161194 -0.020061849 0.29399383 0.27362067 0.056662988 0.08921044 -0.20695707 0.039090745 0.2175181 -0.07963113 0.38946766 0.33384383 0.3069285 -0.3868799 -0.2858367 -0.16712944 -0.22061591 -0.28973508 0.021318665 0.23382202 -0.22634818 -0.15144795 0.044164874 -0.095952354 -0.082606934 0.08857837 -0.21135232 -0.124319635 0.11992447 -0.14045455 0.07592222 -0.16868547 0.1474856 0.25185403 -0.0051445486 -0.05924606
25 0.20852494 -0.034353167 -0.079366505 0.473382 0.08136813 0.2976049 0.16194595 0.032736123 0.024374848 -0.24015026 0.12157807 0.10315233 0.07068118 0.06906575 -0.5558875 -0.103428125 -0.023959262 -0.46702462 -0.038582407 -0.032307263 0.27611867 -0.243994 -0.26454106 -0.19600642 -0.2511118 0.03670935 0.1569569 0.04986425 0.29074776 0.35055336 0.28875852 0.24917033 0.048120238 0.24646275 0.08002215 0.22083561 0.07455366 -0.059861038 -0.23210809 0.018967198 -0.382639 -0.04771252 0.40240934 0.16541164 -0.027403891 0.0009095269 -0.049418453 0.16047432 -0.09352515 0.06512069 -0.009778375 0.021575328 -0.571991 -0.37662986 -0.26154214 -0.065483466 0.12120758 -0.28711122 -0.08279125 0.14739339 -0.18077837 -0.084637254 0.089892685 0.011868509 -0.041562513 -0.2592574 0.17284468 0.444455 0.04319533 -0.2885245 0.35185057 -0.14134924 0.16172469 -0.13717446 0.15746771 -0.04854973 0.2699973 -0.01213484 -0.40358254 0.15485963 0.04914003 -0.4442556 -0.067327745 0.4332053 0.36141193 -0.008809818 -0.078566745 -0.10592715 0.021162588 0.04870446 0.17004938 0.12066126 0.36592546 -0.12681516 0.16546384 -0.06153815 0.016589105 0.17991263 0.06451143 0.024118647 -0.1248712 0.059369866 0.40393224 -0.010838897 0.16270958 0.28267926 0.031726554 -0.13082069 0.17580843 0.35407966 -0.19022888 -0.054908775 -0.15135348 0.18971013 0.025234995 0.13764194 0.19871427 -0.12891 -0.01255344 -0.10863615 0.018885348 0.029267402 0.1984573 -0.27578285 0.039320514 -0.063707255 -0.109211035 0.06114591
9 -0.0829729 -0.019804008 -0.3436114 -0.19155401 -0.1660571 0.04619571 0.09075302 0.49424678 -0.33351222 -0.064399496 -0.20197728 0.23566231 0.015114094 0.043799516 -0.2497332 0.23391378 0.06465634 -0.123683065 0.010565411 0.20547184 0.08563181 -0.21085036 0.09153506 0.3118614 -0.096649125 -0.41214317 0.2850921 0.1888213 -0.055188842 0.42424846 0.06952096 -0.21746042 -0.25704926 0.3403658 -0.12167676 0.13338853 0.07842233 -0.3820054 -0.18949106 -0.14617223 -0.088352084 -0.17853689 0.46688455 -0.2217983 0.19488832 -0.23787566 -0.08424791 0.19175878 -0.0012871264 0.12356857 -0.04215123 -0.20082742 -0.45982343 -0.19296059 -0.1794414 0.042624198 0.39312476 0.1357319 -0.059715487 -0.07323905 -0.03547511 -0.02701186 0.080475725 0.44249907 0.024821801 -0.32980406 0.06935932 0.040661547 0.015454181 -0.35463578 -0.066136956 -0.011203025 0.52134 -0.2081181 0.4412992 -0.09705477 0.29394487 -0.20964162 -0.39208105 -0.020835998 0.15773109 -0.11511596 0.23852791 -0.23138337 -0.04476746 -0.13536994 0.131012 0.05293124 0.32406417 0.009710047 0.27831173 -0.033448342 -0.34030876 -0.009522431 -0.08509173 0.24542186 -0.010261686 -0.05829444 0.19950594 -0.01587232 0.13168128 0.15254776 -0.1955569 -0.022955641 0.12446187 -0.034318764 -0.10721617 0.23134577 0.21794641 -0.09105701 0.21705094 -0.063803114 -0.05829971 -0.0021546965 0.11725402 0.27698508 0.20324183 0.004707423 0.2711589 -0.19866322 0.11070284 0.2819902 -0.11370811 0.0028075867 -0.17556067 0.110503174 -0.15697224 -0.16393584
26 0.11196711 0.015462125 -0.019154325 0.53418887 0.084668614 0.26704615 0.26205504 0.036549382 -0.09870399 -0.19936821 0.08797199 0.05961194 0.10221525 0.062464304 -0.50511163 -0.13259985 0.081627585 -0.45621607 -0.06938187 -0.119462274 0.25454995 -0.32334724 -0.24203911 -0.16014317 -0.2785318 0.105719544 0.20622604 0.0783341 0.3361271 0.2958875 0.26826087 0.1448208 0.16509157 0.10940458 0.0723338 0.17034917 0.054303255 0.08374445 -0.21837775 0.11727056 -0.35648662 0.031457625 0.36091113 0.111630395 -0.07414717 -0.050109357 -0.008431159 0.08577574 -0.15592587 -0.0753782 -0.028537085 0.036212355 -0.45857322 -0.28768396 -0.290356 -0.015894279 0.08332081 -0.29734945 -0.10811689 0.19913258 -0.097632505 -0.10906662 0.12552224 -0.13719873 -0.008968819 -0.26304525 0.16288164 0.44646224 0.021373868 -0.29818302 0.3351751 -0.15797248 0.13771524 -0.10709905 0.22490063 -0.023579262 0.18562277 0.057180524 -0.31755242 0.16134186 -0.0059463247 -0.4714578 -0.099613056 0.3030667 0.2727113 -0.023124656 -0.12122903 -0.1433968 -0.00545339 0.18234858 0.16541824 0.119830206 0.33289576 -0.18673064 0.1400476 -0.024075579 0.00041683204 0.20747234 0.054098893 -0.08114795 -0.11348176 0.04004917 0.41817617 0.052676443 0.16074896 0.24686873 0.03696339 -0.1971269 0.11849025 0.27268445 -0.24784298 -0.024187388 -0.051962372 0.115569405 -0.037634645 0.04330164 0.05907271 -0.15638147 -0.024523247 -0.06419728 0.020486193 -0.06386766 0.17202619 -0.25287026 0.053810775 -0.034657016 -0.07307774 0.07344483
7 -0.21443121 -0.013369084 -0.05656659 -0.15689029 -0.12526083 -0.13169864 0.052361116 0.1647027 -0.2923746 0.06326516 -0.09581853 0.07378893 -0.045195717 0.058374368 -0.06628966 0.13716923 0.21859877 0.06229686 -0.10672561 0.099700525 -0.010073009 -0.23033392 0.051451184 0.2547585 0.0015780822 -0.2177292 0.14586692 0.12090152 -0.04316218 0.17848493 0.07417278 -0.15990308 -0.054831874 -0.0013866256 -0.077826105 0.028576372 0.22981776 -0.19802356 -0.16931768 -0.062131975 0.05185941 -0.25167724 0.19677547 -0.34588388 0.34168547 -0.115554206 0.14439104 0.1306563 -0.14178891 -0.13647504 0.049996026 -0.19689365 -0.21146703 -0.045771144 -0.15781923 -0.007936354 0.35246792 0.06485478 -0.124248415 -0.0018450671 -0.0012773407 -0.00988457 0.049283255 0.106867276 0.13896981 -0.29955688 0.010935672 0.13012233 0.103042796 -0.1474105 -0.10622302 -0.07371621 0.29403567 -0.26144928 0.2993479 -0.010900589 0.1852229 -0.21005723 -0.255803 -0.19555864 -0.0068830373 -0.26607785 0.26108903 -0.30995718 0.0829868 -0.118880294 -0.018295597 0.1346838 0.26033318 0.16560276 0.12124177 0.16270454 -0.31146055 -0.0013622853 -0.006146127 0.3125751 -0.005772741 -0.0388748 0.07928942 -0.07483281 0.18513696 0.019390479 0.039343763 0.064771496 0.11112037 -0.12368683 -0.19892518 0.100822754 0.07073401 -0.21414597 0.1310351 0.07904732 -0.1132464 -0.21196562 0.041327946 0.10864517 0.05586489 0.005708295 0.13766609 -0.24624236 -0.007196212 0.014070654 -0.11161862 -0.022519156 0.048346832 0.23172794 0.039221965 -0.019928563
11 0.10990896 -0.18955608 -0.09055402 -0.06274267 -0.08900101 0.062443398 -0.02249198 0.31955472 -0.17997691 -0.11659509 -0.04366795 0.34275877 0.12831017 0.035515424 -0.21662872 0.091510266 -0.091278106 -0.016629927 -0.05805195 0.22214629 0.23981433 -0.17913495 -0.04851843 0.25163907 0.008080078 -0.31292596 0.0018479772 0.027281715 0.045741826 0.3963636 0.065750375 0.032725148 -0.2577729 0.22296777 0.15437897 0.2113114 0.0018802519 -0.41577446 -0.3103377 -0.15552394 -0.0803689 -0.4116918 0.38000444 -0.08380158 0.13769479 0.051220547 -0.040704656 0.35848132 0.12246607 0.0651098 0.09374739 -0.23595123 -0.524548 -0.14167891 -0.20667261 -0.032834057 0.27375332 -0.08947677 0.024235165 -0.22167782 -0.08910113 -0.09955709 -0.033728432 0.3662421 -0.022951996 -0.3850114 0.056554157 0.1748635 -0.06089216 -0.10599199 0.23343413 0.022157982 0.22210135 -0.41263482 0.32113066 -0.048846148 0.39977694 -0.32365918 -0.4299288 -0.11138893 -0.04242228 -0.25618306 0.28407905 0.046108942 0.18095721 -0.1329561 0.26718295 0.12644231 0.22423129 -0.023656681 0.28143996 0.21075426 -0.27890846 0.11282055 -0.009317862 0.07907732 0.08571089 -0.15424144 0.11916399 0.13142666 0.045678165 0.15522167 0.162615 0.06409559 0.29012847 -0.021202626 -0.064790994 0.23273137 0.1545848 -0.014510088 0.3765702 0.13046877 -0.13288687 -0.0036992275 0.05564387 0.27884752 0.31459236 0.051612943 0.22929895 -0.15746121 -0.07358224 0.105014645 -0.0039565237 -0.072250076 -0.104490586 0.025690116 -0.20519042 -0.03074081
891 -0.24745917 0.17892678 0.09531187 0.26092544 -0.055750307 0.0449934 0.084804595 0.03533438 -0.22377457 0.15908132 -0.062484268 -0.08827489 0.1079039 0.04030194 -0.14122283 -0.025183437 0.308388 -0.28292125 0.06858312 -0.08710921 0.05329989 -0.31911704 0.0032485828 0.16723731 -0.2659786 -0.10120187 0.20863488 -0.005314828 0.11030259 0.06802101 0.14351188 -0.103946604 0.09369902 -0.22124387 -0.00074340665 -0.13599513 0.054676745 0.2623827 -0.07092043 0.13799626 -0.099080645 0.031097522 0.025320958 -0.1264483 0.033838756 -0.19722869 0.09250233 0.036379535 -0.28606337 -0.12150031 -0.013231588 -0.04123528 -0.16145888 -0.12346614 -0.18154976 -0.14489102 0.08609613 -0.0031788675 -0.14128552 0.028233023 0.0009739423 -0.07313848 0.08847724 -0.11877308 0.07908977 -0.057220917 0.20132045 0.37602597 0.055754617 -0.123015895 0.19579199 -0.1929449 0.17199129 0.11374092 0.3330098 0.101477385 0.15126872 -0.00066089956 -0.13213389 0.09017863 0.029675726 -0.36488938 0.10104583 -0.22441752 0.27337345 -0.1339019 -0.20811003 -0.06594119 0.22225936 0.08999889 0.029641528 -0.114276126 0.27152166 -0.14528586 0.24023783 0.29826355 -0.07807747 0.11516354 0.00080731744 -0.09645995 0.0035332688 -0.115002416 0.40723085 0.15859027 0.05010871 -0.097545266 -0.060219552 -0.13347624 -0.058216244 -0.063954 -0.0043859095 0.01673997 -0.13979204 -0.07388117 0.12718233 -0.08852393 -0.07293637 -0.06802711 -0.103365466 -0.10307904 0.0416627 -0.13192286 -0.045458212 -0.17086194 -0.0020372001 0.21290971 -0.06533863 -0.14774957
904 0.16332516 -0.44331443 0.03839013 -0.042988334 -0.113412686 0.092109926 0.0065887333 0.47679454 -0.39419165 -0.06602482 -0.079476744 0.5904445 0.22698756 0.10970645 -0.31163254 0.034239892 -0.071851075 -0.015796002 -0.30828807 0.35036966 0.5218293 -0.52744967 0.0077707022 0.58427346 -0.10016313 -0.2657982 0.02884079 -0.03691618 0.1798925 0.4967098 0.09795176 0.18934475 -0.25485885 0.057060763 0.27624375 0.2875888 -0.1902299 -0.52662545 -0.4400428 -0.12689225 -0.02429558 -0.6948039 0.5388624 -0.22124773 0.06285123 0.18655013 0.011531641 0.41702765 0.18185316 -0.015642907 0.25149015 -0.43511543 -0.6220715 -0.041589957 -0.377258 -0.03061313 0.24055347 -0.23885491 0.15023176 -0.53657585 -0.12917456 -0.3516969 -0.08836031 0.30931154 -0.016029226 -0.53826106 0.13441475 0.407708 -0.14193037 -0.12445712 0.6105924 0.17143269 0.058334023 -0.7648232 0.41015148 0.031713977 0.6052736 -0.4126244 -0.5044749 -0.14085108 -0.28327045 -0.68461084 0.483825 0.16146398 0.34222522 -0.26961455 0.54432917 0.28257644 0.29048705 -0.0035921722 0.5160104 0.34854096 -0.39816704 0.21940273 -0.0587393 0.17769134 0.135539 -0.25803685 0.19606896 0.12327257 0.038016558 0.15835144 0.4956553 0.20389676 0.43759984 -0.11227324 0.025447343 0.42068428 0.1516595 -0.16155438 0.7065629 0.34125546 -0.2967288 -0.05214583 -0.08916125 0.45255792 0.33882502 0.17822449 0.41158646 -0.21786632 -0.20179255 -0.17019106 -0.010904919 -0.017946213 -0.059282307 -0.011940223 -0.24053383 0.15399225
43 0.099975504 0.075773284 0.026900845 0.47004554 -0.07569337 0.09963619 0.050853603 0.031324163 0.03258048 -0.024384404 0.18485047 0.0313434 -0.06347417 0.0037204716 -0.5150977 -0.25920665 -0.005148026 -0.46542966 -0.03624938 -0.029652784 0.09808572 -0.19620039 -0.11868598 -0.10475746 -0.3948203 -0.06766569 0.10894289 -0.023148187 0.25979275 0.15032566 0.2365886 0.2952625 -0.055822786 -0.031681683 0.098858215 0.06321646 0.15417695 0.053712185 -0.09373189 -0.02927629 -0.14289324 -0.049191706 0.3158389 0.13090947 -0.0070962887 0.1559922 0.14071034 0.013868074 -0.0530191 -0.0042540557 0.05955073 -0.015083691 -0.49174446 -0.5347631 -0.30717218 -0.1968766 0.1491668 -0.14844681 -0.17389643 -0.02494805 -0.25846723 -0.12731883 0.14290951 0.00031575444 -0.15047854 -0.023883043 0.24386677 0.44230846 0.09581188 -0.08743377 0.37837756 -0.054391623 0.18483442 -0.0030173725 0.12752534 0.025852337 0.30119088 -0.20151824 -0.37266234 0.038609073 0.118565604 -0.45338157 0.21892399 0.22993003 0.594133 -0.1440503 -0.047684856 0.12101872 0.057280988 -0.0945654 0.03545469 0.10512862 0.24922268 -0.111546375 0.29120457 -0.02090915 0.094560415 0.051056996 -0.024624016 0.07740182 -0.21463908 -0.05317683 0.25891227 0.0004915956 -0.036001958 0.12000265 -0.11289017 -0.13847141 0.044323273 0.11197442 -0.005149188 0.025157081 -0.22651014 0.32219732 -0.12282592 0.12934071 0.27758312 0.0023010625 -0.055551022 -0.10236655 0.08754364 -0.01122583 0.0018849612 -0.25008252 0.22144185 0.015958527 -0.14624254 0.011780267
931 -0.4042062 0.10383618 0.027087728 0.022693112 -0.10774555 -0.134952 0.15507679 -0.046735875 -0.223847 -0.0019307167 -0.24494173 -0.04781758 -0.17316638 -0.024505861 0.12973416 0.06654149 0.45931438 -0.20145977 -0.029525563 -0.17517088 0.016320325 -0.2997171 0.051615916 0.2675969 -0.16642511 -0.29156756 0.20509121 -0.0104087265 0.101832174 0.064146005 0.15645216 -0.08956613 0.19801024 -0.38733453 -0.011079019 -0.083338074 0.21689571 0.18961945 -0.17975758 0.14745028 -0.05424078 0.06729675 -0.15864702 -0.25228232 0.18830384 -0.4084326 0.16293974 0.09652395 -0.50926894 -0.23470847 -0.113184005 -0.19091891 -0.124513365 -0.05410663 -0.32174796 0.024265412 0.16112256 -0.03910789 -0.25806835 0.033976644 -0.05229747 0.0009460222 0.28013182 -0.13866942 0.11992909 -0.0846551 0.03021937 0.49713036 0.0913346 -0.17843093 0.20587158 -0.1925031 0.13109063 -0.14028256 0.093774684 0.17548504 0.13651508 0.103098445 -0.15172069 0.2398744 -0.12048128 -0.3099326 0.18278377 -0.3213708 0.10517883 -0.19018702 -0.26077837 -0.13679388 0.27333942 0.11598415 -0.058696102 -0.121455885 0.21441242 -0.20762827 0.43400052 0.27718663 -0.14544347 0.21406864 -0.08678526 -0.16609332 0.2509537 -0.10676209 0.3494252 0.27686444 0.16229816 -0.09082519 -0.2935473 -0.139274 -0.17829707 -0.09808117 -0.08047476 0.22287591 -0.2015355 -0.42345542 0.2521432 -0.0005955384 0.005603175 -0.20818552 -0.11695798 -0.15183236 0.12866996 -0.03673555 -0.018713223 -0.16964708 -0.12689869 0.28784347 0.046816573 -0.18385988
50 -0.15216209 0.33136773 0.06504347 0.13823706 0.00994195 -0.12146306 0.31116608 0.03380418 -0.19262214 -0.14485678 0.28819206 -0.07528182 -0.03383475 0.13126795 0.0142605575 -0.23528816 0.3684322 -0.2398186 -0.04408902 -0.19533736 -0.055545148 -0.27182323 0.018021388 0.119651675 -0.08770428 -0.20701191 0.23763165 -0.051067855 0.22258261 0.044083077 0.020721596 -0.1495969 0.2315383 -0.5157026 0.13598278 -0.092584 0.32541022 0.052314155 -0.13881122 -0.04118161 -0.11467995 -0.012046693 0.20635246 -0.09515214 0.0009397055 -0.18431537 0.015083666 0.019214325 -0.31929612 -0.37384114 0.0029186122 -0.29558885 -0.09546622 0.066030905 -0.49345767 -0.063633114 0.2788676 -0.13126718 -0.16711083 0.1416377 0.002158591 -0.076490246 0.1652973 0.018725537 -0.0012237466 -0.122461505 -0.035690073 0.5178297 -0.0063903183 0.040537294 0.40152472 -0.1252336 0.16632694 -0.12974933 0.27331194 0.060013514 -0.051492676 -0.019646138 -0.14684807 0.17734437 -0.0021596123 -0.22122803 0.043857757 -0.25308174 -0.059532624 -0.050161038 -0.34219405 0.110330254 0.2986569 0.23096439 0.06612953 0.021311302 0.08377995 -0.11242802 0.33776972 0.15907918 0.00957796 0.03584998 -0.06139921 -0.22570805 0.15125503 -0.04774741 0.32293683 0.12331759 0.096014 -0.031033712 -0.011075483 -0.3704267 0.08777484 0.17262286 -0.1361723 0.3315531 -0.27327284 -0.4285396 0.19056661 -0.22683084 -0.1271509 -0.12508854 -0.15466294 -0.12173232 0.09210387 -0.15262766 0.016913246 -0.12673894 0.025704063 -0.039907236 -0.038539544 -0.072164685
37 -0.08228932 0.078630745 -0.09536133 0.10857213 -0.10528145 0.032535177 0.017452084 0.15603594 0.025847038 -0.06760134 0.10291163 -0.000182352 -0.10447408 0.07994283 -0.27965492 -0.06324911 0.10997279 -0.31192362 0.07804045 0.0072013345 0.102445744 -0.19836482 -0.09278601 0.022694318 -0.29474977 -0.08155716 0.18557504 0.03856227 -0.016892366 0.1794354 0.09387591 0.0037873844 -0.02148869 0.042299055 -0.046913005 -0.005847833 0.25463444 -0.004404633 -0.04816723 -0.053872183 -0.07904032 -0.04494627 0.21929435 -0.01488345 0.13743523 -0.10831592 0.039278306 0.033764057 -0.11572136 0.070994206 -0.025881918 -0.11233065 -0.2862405 -0.27621567 -0.15894328 -0.13455984 0.22483145 -0.054397874 -0.045573518 0.12538134 -0.1082533 0.027642079 0.13913408 -0.017884504 -0.015491964 0.054594427 0.08111881 0.24502738 0.08942801 -0.25462598 -0.0013630493 -0.1433632 0.2704793 0.081419975 0.15269347 -0.026965363 0.10741833 -0.13609602 -0.24817075 0.08115681 0.08156703 -0.15335646 -0.02134422 0.007557637 0.15793537 -0.08709387 -0.050081037 -0.10346463 0.1741685 -0.029052595 0.009577746 -0.12094146 0.13142559 -0.03384054 0.24704278 0.19239776 0.056793127 0.13482492 0.019152477 0.071190335 -0.03380102 -0.06657069 0.1335047 0.061677832 -0.006373275 0.034381486 -0.11411548 -0.18912607 0.0525443 0.026370877 -0.14636917 -0.057047576 -0.20724231 0.037649978 0.12500615 0.0014026961 0.10411779 0.03885536 -0.09512748 -0.09913959 0.13413872 0.094170436 0.052931342 -0.15110941 0.07560405 0.07574946 -0.0889569 -0.0066873473
53 -0.13287298 0.1207883 -0.15610768 -0.081703156 -0.038345087 0.16348836 0.14704347 0.15806696 -0.13702612 -0.03181392 -0.11610994 0.111910224 0.14613596 0.0013664659 0.025341846 0.039531786 0.15774916 -0.09354137 0.17522736 0.102253065 0.055230986 -0.15726176 0.062425114 0.2324266 0.011861496 -0.26043513 0.22734313 0.021537092 -0.0319241 0.25160277 -0.071547545 -0.10122729 -0.14801714 -0.059788648 -0.109617144 -0.061185874 0.09042003 0.014920078 -0.1788328 0.019915333 -0.06193589 0.00058923464 0.11790133 -0.03938431 -0.02952919 -0.39033994 -0.075810075 0.14604032 -0.21585229 -0.060985994 -0.07452248 -0.14998429 -0.3298811 0.026833583 -0.1254599 0.017688366 0.20054242 0.020060468 -0.06318349 0.06600824 0.055724796 0.044250716 0.13564953 0.22088447 0.08611799 -0.07543316 0.05468965 0.19778718 0.042516958 -0.16321504 0.1168465 -0.2134158 0.25546658 -0.06868423 0.2671781 -0.087473996 0.15150343 0.103341915 -0.19453432 0.14471011 -0.008721974 -0.15608847 -0.09413124 -0.12966713 -0.026349545 -0.04293291 -0.1178354 -0.07098015 0.35635772 0.05257729 0.06842044 -0.17745711 0.16236298 0.0024326146 0.10461093 0.339118 0.05504976 0.024436869 -0.01565992 0.019109182 0.27866226 -0.04599168 0.2858223 0.07119723 0.15384941 -0.050901737 0.003989736 -0.03671025 0.12613954 0.014160121 0.05626134 0.1137781 -0.1957729 -0.180463 0.33749947 0.018016288 -0.07953663 -0.056299143 -0.14633884 -0.16899411 0.06902487 0.03472903 0.023454344 -0.13950169 -0.12649825 0.10318419 -0.04567373 -0.23177709
945 -0.20099086 0.1959146 0.109964624 0.23949948 -0.10361855 0.039619822 0.16613528 0.065089285 -0.26870206 0.053770963 0.01730773 -0.053779982 0.08791822 0.03652778 -0.15887497 -0.11774091 0.26717958 -0.2507894 0.051655423 -0.105714776 0.022323713 -0.25964195 -0.025165588 0.12393392 -0.20747513 -0.12991776 0.1851533 -0.0057863295 0.10940021 0.058343668 0.04856055 -0.16903177 0.118296206 -0.2613362 0.103401504 -0.07546939 0.09867033 0.17822322 -0.0925173 0.10503346 -0.07544228 -0.002909452 0.08512006 -0.10996366 0.0071386835 -0.14402133 0.07603768 0.025682457 -0.2109188 -0.19631772 0.028878782 -0.09700834 -0.1732624 -0.12368516 -0.25625017 -0.11470776 0.12014936 0.0033547997 -0.13063316 0.04095544 0.041886024 -0.059094224 0.10779737 -0.08235767 0.06669753 -0.06034699 0.16414638 0.34545502 0.02449466 -0.06807724 0.23238541 -0.10492515 0.1769393 0.07391522 0.34607247 0.07124082 0.07264017 -0.06437048 -0.15340506 0.105334505 0.02843533 -0.3160994 0.08407168 -0.19114745 0.22512487 -0.17352033 -0.15424141 -0.017844854 0.1775041 0.17680198 0.05351599 -0.03304661 0.16230157 -0.12988037 0.22033374 0.23969132 -0.029776117 0.0600191 -0.023769185 -0.065320626 -0.00732522 -0.075257994 0.3270601 0.1404653 0.03288632 -0.0753124 -0.043598842 -0.1665086 -0.015042455 -0.0009161453 0.01186152 0.10299074 -0.10843753 -0.123657174 0.10187178 -0.14719109 -0.074940234 -0.046493795 -0.039459787 -0.051288553 0.05265494 -0.11567321 -0.02920312 -0.1505005 0.03359457 0.16721164 -0.07508562 -0.10689531
942 -0.22489981 0.26037955 0.14233513 0.23315449 -0.12513714 0.023894332 0.18040532 0.07488395 -0.3281506 0.03807803 -0.0027731294 -0.081008606 0.064155556 0.04330172 -0.104628235 -0.13382514 0.29839388 -0.25282612 0.07226239 -0.16053002 -0.025547925 -0.25328174 -0.015024101 0.16287112 -0.22255936 -0.16603267 0.21215528 0.0047301343 0.12373971 -0.006583875 0.019543774 -0.22106934 0.15684266 -0.36696258 0.08858144 -0.1270093 0.113133535 0.20767486 -0.11073612 0.081038415 -0.058804523 0.022356613 0.07519822 -0.15368713 0.028217744 -0.14027722 0.08138958 0.008997381 -0.22671267 -0.26149282 0.03541449 -0.14612587 -0.15522076 -0.12874559 -0.31584215 -0.15585858 0.14327449 0.021700222 -0.19348115 0.017439071 0.0333491 -0.09392716 0.11249065 -0.055010576 0.066199586 -0.03580481 0.16236944 0.3936414 0.031717725 -0.03882695 0.25485805 -0.09488831 0.2206705 0.07380445 0.37970784 0.06284489 0.028951693 -0.04089213 -0.12737587 0.16193405 0.04339302 -0.27766228 0.14067338 -0.32443243 0.1793171 -0.23585038 -0.18619631 0.016209057 0.25206307 0.18661524 0.043921437 0.004080735 0.13618045 -0.15057607 0.26920506 0.29585508 -0.04941503 0.041436434 -0.039978724 -0.047809802 0.034499913 -0.06469411 0.2788714 0.16857883 0.024744444 -0.15024601 -0.04086625 -0.18048114 -0.04232491 -0.03169343 0.010249074 0.16529603 -0.114334926 -0.17242482 0.1167325 -0.16177912 -0.08953356 -0.052225586 -0.0758978 -0.07788698 0.06829244 -0.10815051 -0.052807223 -0.15454434 0.062830776 0.17692028 -0.08974445 -0.14571102
20 -0.13626407 0.0669492 -0.15896389 -0.12603995 -0.101340905 0.18464422 0.1134363 0.21329182 -0.16107926 -0.055677686 -0.103765175 0.14628147 0.21171555 0.0066130124 -0.02290651 0.09920301 0.12218477 -0.03106975 0.23910905 0.10591748 0.09799748 -0.13343425 -0.0160318 0.19445741 0.058222115 -0.21137476 0.20411962 0.009318128 -0.016496034 0.30133998 -0.049921226 -0.10343414 -0.15602808 0.063249305 -0.05936996 0.06906812 0.09820833 -0.056987252 -0.16656046 -0.031279992 -0.08189207 -0.06422513 0.22575124 0.0117450645 -0.0125455875 -0.32034114 -0.037075754 0.18708959 -0.084694 -0.041238356 -0.068960994 -0.16539094 -0.35097322 0.040688608 -0.06556367 0.0003476179 0.18271923 0.04988499 -0.026937064 0.057909273 0.056977663 0.03922157 0.099045455 0.23355985 0.11663846 -0.14280057 0.01204233 0.017738901 0.017475782 -0.14876932 0.03535077 -0.17050743 0.340608 -0.13332182 0.27953294 -0.13730551 0.23227249 -0.05591915 -0.265962 -0.027521344 0.024308182 -0.060529932 -0.017657945 -0.13096511 -0.087972455 -0.025058879 0.028345251 -0.08016526 0.35559857 0.07338143 0.07552276 -0.045662794 -0.021822799 0.09252991 -0.011273131 0.32521555 0.09028737 -0.025650874 0.015281712 0.05814325 0.32542703 0.0037534332 0.22165531 0.054639775 0.15633404 -0.068971336 -0.0053181006 0.03134398 0.14484607 -0.014359043 0.13702326 0.048131272 -0.14758977 -0.18352997 0.27727506 0.06367499 0.012612287 -0.026966847 -0.1027812 -0.19984566 -0.005698707 0.061972912 0.023237176 -0.09609914 -0.122583546 0.090526864 -0.09570163 -0.17194735
31 -0.022968782 0.13813677 -0.072318606 0.17562065 -0.10853986 0.028404385 0.055284437 0.15342659 0.004168858 -0.1382749 0.18319535 -0.034742534 -0.1178773 0.13021345 -0.37067106 -0.14742117 0.11592669 -0.375429 0.02779196 -0.051526334 0.121251196 -0.2603717 -0.112324856 0.00489776 -0.32593483 -0.0067046173 0.25784376 0.05003771 0.027295789 0.19025825 0.08680825 0.021302734 0.065146945 0.038782597 -0.0124478 0.04313782 0.31961018 -0.06427903 -0.044112645 -0.0543362 -0.1058353 -0.028143978 0.3341022 -0.053755693 0.12424488 -0.0449467 0.040966373 -0.007732102 -0.13618797 0.055450626 -0.014205243 -0.12843826 -0.29253063 -0.3166704 -0.23421466 -0.14102048 0.24849744 -0.049563356 -0.036979254 0.15939023 -0.120709874 -0.0026505387 0.15536463 -0.020300463 -0.028338762 0.0332054 0.06616204 0.2848963 0.08957382 -0.25602576 0.01852207 -0.06559831 0.2761039 0.0467786 0.13649572 -0.019003568 0.080672696 -0.15796545 -0.25148746 0.12951633 0.09776564 -0.23101985 -0.05877705 0.077706166 0.16071473 -0.07101347 -0.1070178 -0.038697626 0.1532796 -0.0037745168 0.064948894 -0.08290787 0.13342534 -0.029350227 0.24422164 0.1683937 0.058987863 0.1832399 0.021926668 0.007371977 -0.06051363 -0.06148301 0.1065077 0.047209293 -0.030224932 0.09345849 -0.09256053 -0.23929554 0.124565154 0.1034299 -0.18283497 -0.069030635 -0.2158727 0.039927546 0.078353964 -0.044305213 0.07836411 0.027932022 -0.09065237 -0.08633608 0.16697972 0.06596527 0.06413675 -0.18729733 0.14577292 0.035681497 -0.06167481 0.054909468
930 -0.1635616 0.21288249 -0.08630355 0.0027457296 -0.0688752 0.16198473 0.1685565 0.115635335 -0.12789491 -0.04420236 -0.057499833 0.036176033 0.1416199 0.056565147 0.04209855 -0.012134545 0.23959516 -0.20317326 0.21278884 0.029721528 0.061333634 -0.22335966 0.061623048 0.19949055 -0.04587058 -0.27332246 0.26884434 -0.010938331 0.028951317 0.22498807 -0.042493276 -0.05348756 -0.06848956 -0.13359275 -0.09488296 -0.08953658 0.0782064 0.102052905 -0.16710363 0.030841015 -0.11071 0.018211234 0.059549753 -0.028470894 -0.06683859 -0.35908887 -0.0946013 0.13723515 -0.26813713 -0.07555947 -0.06920159 -0.16516654 -0.298609 0.019817954 -0.16109177 -0.050985113 0.16876712 0.020935712 -0.06976448 0.08059843 0.023676347 0.0056950003 0.10446161 0.17878543 0.09982373 -0.03320431 0.08942296 0.23603305 0.0625856 -0.09913679 0.191141 -0.21191369 0.25328624 -0.048818618 0.25992277 -0.06772421 0.12967038 0.14733118 -0.1625043 0.16986975 0.008072567 -0.15327811 -0.11197789 -0.14805023 0.011844641 -0.038202405 -0.18593735 -0.08276715 0.37427887 0.020439178 0.033140205 -0.17215225 0.21331932 -0.00769116 0.18593177 0.36342055 0.005447632 0.07681853 -0.06006151 0.003599066 0.27983856 -0.06553173 0.37341762 0.095206015 0.15761995 -0.09015459 0.024693148 -0.08725691 0.10542388 0.049136836 0.03031387 0.13186663 -0.2863662 -0.21448815 0.3575318 -0.034752715 -0.09008039 -0.058357824 -0.22355705 -0.1849859 0.05950794 0.0037884547 0.03421919 -0.17945977 -0.08820726 0.115974955 -0.05050969 -0.2569024
28 0.09555146 -0.023206806 -0.049022954 0.15923049 -0.07048052 0.061004378 -0.05296902 -0.017115548 0.13896275 -0.108105764 0.14497341 0.027456824 -0.06478977 0.06732246 -0.35982218 -0.061921667 -0.054231573 -0.20894308 0.038033057 0.034704756 0.087877646 0.01167384 -0.17168748 -0.24936928 -0.09006628 -0.03617414 -0.02534576 0.01919426 0.076587126 0.2235542 0.18209498 0.1006015 0.014025948 0.24926986 0.121177785 0.18801066 0.2825591 -0.12505077 -0.23403712 -0.055506445 -0.20488565 -0.18891032 0.30354336 0.039817784 0.28975952 -0.023453785 0.03396361 0.21028201 -0.104849875 0.07437089 0.008762981 -0.063754596 -0.5062096 -0.42143068 -0.14197488 -0.13082321 0.29049814 -0.118965365 -0.09283097 0.10510269 -0.14176333 0.017804295 0.13858025 0.02486112 -0.010393757 -0.14213336 0.08502083 0.29972303 0.054047026 -0.24461818 -0.008580864 -0.13807574 0.2546453 -0.04523468 0.14279416 0.009393009 0.23969622 -0.27835736 -0.46379843 -0.025015837 0.075473435 -0.31259173 0.051135037 0.21510772 0.3619914 -0.14719163 -0.013488243 -0.109287776 0.027232766 0.011911145 0.07952037 0.072283626 0.09602945 -0.056066275 0.24448183 -0.014923588 0.03623173 0.11215986 -0.021395415 0.1203675 -0.119201235 0.009599997 0.26062658 0.03637623 0.12262933 0.12175669 -0.25759798 -0.16406357 0.08975838 0.1322117 -0.06631873 -0.06767158 -0.15296791 0.09127606 0.02616983 0.02669962 0.25322968 -0.037759356 0.06926022 -0.12932274 0.094090566 0.18945253 0.1176524 -0.28104594 0.11608267 0.12020539 -0.12781672 0.05281611
935 -0.19300714 -0.057313688 -0.1730247 -0.08430615 0.1168735 -0.07599725 0.04539487 0.43929926 -0.26231405 0.020054137 0.025859803 0.19616689 0.04897499 -0.0697204 0.09830037 0.12106378 0.20149934 -0.06775048 0.11776835 0.21243742 -0.024278603 -0.1448525 0.109929234 0.32333618 -0.06855517 -0.5935981 0.044252228 0.118880965 -0.009521682 0.2945542 0.20052196 -0.38742736 -0.32524797 -0.022063335 -0.1393297 -0.26562676 0.092971355 -0.1333462 -0.17960988 -0.20413935 -0.05402962 -0.21433504 0.12608275 -0.00042927414 0.27737382 -0.22651644 -0.16504794 0.22789273 0.0561786 0.008618151 -0.08532048 -0.09236875 -0.30152863 0.039844617 -0.1900271 -0.050367646 0.3480727 -0.15144666 -0.2154501 0.025091847 0.01861149 -0.034779545 -0.04030408 0.3093802 -0.13301416 -0.264429 -0.016269982 0.2915718 -0.06354859 -0.04600272 -0.038771775 -0.4175023 0.34942487 -0.024162244 0.58242625 -0.052279305 0.13423707 -0.21890518 -0.24199231 -0.056608956 0.26702014 0.13626859 0.25053936 -0.50952256 -0.0014378018 -0.028577356 -0.15725636 0.012547943 0.3008417 -0.08631006 0.05282976 -0.054177787 -0.11602709 -0.078377366 0.24712 0.04738826 0.03702323 -0.06902949 0.14453152 -0.047178604 -0.036634907 0.067352176 0.091178365 0.07403285 0.17115931 -0.065773286 -0.15955548 -0.028973743 0.024772884 -0.023564467 -0.021501128 -0.01236621 0.00024668593 -0.14703192 0.26326302 0.112849906 0.13847242 0.04127399 -0.0520696 -0.106129974 -0.028784875 0.121456645 -0.054804564 -0.008215992 -0.15498903 0.008941976 -0.09350699 -0.24812508
925 0.046483777 0.12930195 -0.057071593 0.2119604 -0.13021958 0.13357282 0.0560906 0.020328091 0.0033544279 -0.0735636 0.26883107 -0.025523106 0.00788559 0.11471854 -0.378556 -0.111964904 0.04456368 -0.3941782 0.16060184 0.0448254 0.0714027 -0.075349085 -0.1797278 -0.22645581 -0.22363527 -0.14651759 0.11428871 -0.08669765 0.09240402 0.17648204 0.10647563 0.1453726 0.011632804 0.050056715 0.14610817 0.12958443 0.19805548 -0.004435638 -0.11072208 -0.05903302 -0.2911637 -0.08707953 0.23876338 0.14649326 -0.05532127 -0.09879011 -0.073712 0.12719373 -0.18784133 0.077729195 0.068193845 -0.11443777 -0.4009854 -0.38395566 -0.1766864 -0.24636911 0.10397994 -0.016977914 -0.045412455 0.13075534 -0.14986865 0.032849375 0.040098377 0.06736871 0.0050443285 -0.01230331 0.24836136 0.3423447 0.106208086 -0.19371662 0.32238388 -0.11983103 0.30406052 0.13138412 0.21233541 0.0010608586 0.18582508 -0.12315518 -0.402917 0.048108663 0.14219205 -0.22039664 0.025618577 0.2108747 0.34450912 -0.095956326 -0.039000243 -0.08456433 0.111022 -0.02516576 0.049546327 -0.08203312 0.2816484 -0.0883854 0.25968167 0.16526563 0.004751827 0.042198356 -0.10292783 0.19408496 -0.080290176 -0.04159799 0.3589167 -0.07382769 -0.0053280666 0.14307366 0.020678354 -0.18487549 0.073081106 0.2806715 -0.065738514 -0.06267581 -0.3863574 0.022364646 0.23818927 -0.065282404 0.18228044 -0.036271833 -0.046790726 -0.111025326 0.074358515 0.054278407 0.09967034 -0.1513232 0.007620108 0.018570198 -0.17931643 -0.045278564
869 -0.093433365 0.034181733 -0.2399084 -0.21796045 -0.1681522 0.12037882 0.069880225 0.3084126 -0.3005938 -0.08693834 -0.05468941 0.27199033 0.1189856 0.021958055 -0.1887445 0.061218273 0.1025671 -0.043072477 0.120435886 0.3031245 0.110318795 -0.08162101 -0.01347316 0.2715545 -0.0044102827 -0.41855815 0.18834887 0.10914828 -0.0422882 0.44533858 -0.02998772 -0.1689127 -0.29807195 0.2922557 -0.07853242 0.18762693 0.2965427 -0.4115343 -0.2167455 -0.12543468 0.040688414 -0.24469905 0.36794895 -0.123046756 0.26713938 -0.24597003 -0.0024307985 0.23425518 0.029112687 0.11176904 -0.12301931 -0.18515438 -0.5965012 -0.10711638 -0.078796744 -0.029192137 0.33839884 0.083593026 -0.06488358 0.0066934484 0.029185787 0.049043868 0.11304672 0.43317646 0.08616508 -0.25114465 0.021229967 0.1225591 0.050465796 -0.23783794 -0.14631319 -0.10763212 0.49556586 -0.22745237 0.4767597 -0.16685899 0.3053429 -0.34222475 -0.5071343 -0.100683965 0.11702876 -0.14569315 0.23119159 -0.19029029 -0.024497198 -0.24380116 0.14372616 0.10988925 0.31830505 0.09754857 0.28385726 0.04551036 -0.29252347 0.048904393 -0.07832287 0.264593 0.082185976 -0.04639656 0.08540882 0.15314178 0.23091303 0.045551408 -0.06440674 -0.07206252 0.16311598 0.021306872 -0.18843012 0.1869815 0.29640257 -0.043674536 0.20979968 -0.05376899 -0.07640249 -0.057617906 0.16173525 0.162976 0.17071989 0.09081745 0.1544784 -0.27512115 0.0389259 0.20986272 -0.0035760344 -0.025621748 -0.056336053 0.08017165 -0.1780942 -0.09571746
3 -0.0652851 0.041407663 -0.21208853 -0.18062343 -0.15110874 0.10933166 0.07455127 0.21827394 -0.25727907 -0.07762261 -0.056996156 0.20585111 0.09384291 0.023061918 -0.19600806 0.035872936 0.07127669 -0.011273535 0.10056764 0.25053194 0.06410508 -0.03188546 -0.008297472 0.18701614 0.02412797 -0.3439322 0.1544894 0.098488964 -0.018322887 0.37289274 -0.029013287 -0.117398664 -0.24122939 0.26441953 -0.056085408 0.19320564 0.275419 -0.3606325 -0.21527074 -0.1070334 0.023188885 -0.20880495 0.3559498 -0.11091778 0.2390128 -0.20761469 0.019448206 0.191701 0.011737945 0.062135078 -0.10158414 -0.17032629 -0.54162127 -0.12737958 -0.0815722 -0.024398103 0.31773445 0.07859262 -0.0679965 0.009729833 0.02845997 0.04240662 0.13255338 0.3965195 0.07790976 -0.22472198 0.020898916 0.08492523 0.05133081 -0.21386969 -0.12529148 -0.068959765 0.43858042 -0.20544958 0.39842686 -0.14244801 0.26860216 -0.30718607 -0.46877083 -0.093760364 0.09384436 -0.15312216 0.20050967 -0.13728343 -0.009982892 -0.2197589 0.13323975 0.0996688 0.26869345 0.106819585 0.2541698 0.069956675 -0.27417862 0.040712845 -0.08934318 0.20789212 0.0732636 -0.0617515 0.05341955 0.13977568 0.19787587 0.045057993 -0.05764627 -0.055854138 0.14952052 0.021612896 -0.16250886 0.15107018 0.26304668 -0.038127553 0.18661936 -0.038024116 -0.06318494 -0.042665645 0.10497489 0.12910491 0.15522872 0.06254365 0.15844832 -0.25615636 0.06537208 0.1961035 -0.00021293065 -0.03571382 -0.031636517 0.087027326 -0.1718771 -0.09473545
867 -0.034243487 -0.06798925 -0.17749609 -0.13435203 -0.102482945 0.09640006 0.03512094 0.27133343 -0.22507922 -0.07624463 -0.06536107 0.2554558 0.10083537 0.00550815 -0.2071156 0.11097839 0.02126638 -0.029926088 0.055431955 0.24475184 0.14280912 -0.102903634 -0.047935683 0.22168235 0.024471719 -0.32086462 0.099165805 0.08664476 -0.019103017 0.41636458 0.06737677 -0.11679697 -0.2358863 0.2919129 -0.02494324 0.20900722 0.1794549 -0.41825268 -0.20373066 -0.14459251 -0.01389683 -0.27779087 0.33323798 -0.10757801 0.27074972 -0.10802357 0.024736797 0.25462294 0.04657277 0.09432673 -0.0693021 -0.13946988 -0.5346467 -0.0892197 -0.08343375 -0.007878996 0.3007157 -0.0018660633 -0.05436289 -0.03737984 -0.0018690542 -0.011826262 0.04981691 0.35989964 0.04400025 -0.3190509 -0.002053193 0.14705627 0.025891386 -0.21179661 -0.0812176 -0.10265366 0.36395523 -0.27777523 0.37581885 -0.100009106 0.34307402 -0.3499025 -0.45892313 -0.11704847 0.07323819 -0.18565513 0.23263878 -0.10188251 0.05382589 -0.17625283 0.1632635 0.08215127 0.23251371 0.06897158 0.24647324 0.12691772 -0.23013543 0.057599332 -0.06833613 0.16198637 0.08005472 -0.05137166 0.13629703 0.12128202 0.12352933 0.077280134 0.0027552175 -0.036347114 0.16392668 0.044843335 -0.14872384 0.1795124 0.22391091 -0.018686812 0.19413976 -0.031190293 -0.029769983 -0.013308868 0.101960644 0.21500953 0.21563222 0.04826719 0.1978055 -0.22640204 -0.009605957 0.14645913 -0.0057250964 -0.04228729 -0.07062142 0.07221037 -0.15663087 -0.03980852
36 -0.17640544 0.1802577 -0.11840824 -0.0063505224 -0.10211506 0.14519224 0.17238341 0.06477013 -0.13969158 -0.023226494 -0.06993994 0.03910152 0.12018441 0.0059761466 -0.03049195 -0.03280171 0.22112343 -0.13169785 0.24555315 0.0257995 0.006477879 -0.09742116 0.021622192 0.082387924 -0.013652449 -0.24282391 0.2172036 -0.011454847 0.05115493 0.16948397 -0.051890954 -0.07927319 -0.061077308 -0.14249447 -0.028509941 -0.03607761 0.18668321 0.13222596 -0.19643158 0.05217621 -0.10753335 0.03129038 0.13378306 0.013912082 -0.046148174 -0.41839853 -0.032384068 0.10628242 -0.2580495 -0.11997133 -0.071297914 -0.14210372 -0.3359685 -0.083562866 -0.16376285 -0.025042094 0.1867754 0.042348515 -0.11723979 0.12879786 0.044140212 0.07772538 0.20711398 0.13542734 0.09745781 -0.00048987486 0.10201039 0.24819423 0.054390345 -0.1672522 0.17964591 -0.22999763 0.3158319 0.038857203 0.25187194 -0.05610777 0.14807019 0.07152162 -0.26065376 0.13903524 0.047271635 -0.17962267 -0.08929425 -0.09301222 0.09267194 -0.07656039 -0.17450619 -0.13135499 0.32660547 0.08881743 -0.00603742 -0.17311485 0.2520936 -0.04266227 0.23889166 0.30281156 0.054651376 0.03551227 -0.10833377 0.027064452 0.27119797 -0.086709745 0.34641358 0.09270741 0.1097886 -0.047347598 -0.06561475 -0.14652637 0.07089073 0.038987335 0.009223389 0.07347627 -0.21371648 -0.23129013 0.31785893 -0.08517304 -0.060459115 -0.08725809 -0.19157815 -0.15249033 0.10747989 0.037119314 0.04453824 -0.18555231 -0.06396302 0.13861288 -0.05505204 -0.22673318
27 -0.03440596 0.115898564 -0.027792018 0.21489896 -0.12147136 0.03844272 0.057068575 0.11375231 -0.060436122 -0.059979204 0.19181168 -0.026665676 -0.04884945 0.10048319 -0.35899422 -0.14795344 0.12240087 -0.3436403 0.059971593 -0.016074672 0.11137541 -0.19582912 -0.09834047 -0.04809231 -0.30767968 -0.0571472 0.18235366 0.02175925 0.07756947 0.14251047 0.100375056 -0.006663068 0.058215067 0.0094164945 0.07274614 0.06051225 0.26469642 -0.011901533 -0.06371971 -0.031355634 -0.12502168 -0.06350063 0.29209355 -0.0063797743 0.07327016 -0.052123435 0.026877282 0.015222488 -0.105593584 0.046384227 0.0044078184 -0.102187455 -0.3108272 -0.33397105 -0.21799053 -0.17530416 0.19005644 -0.05019595 -0.039862 0.11688136 -0.075603925 0.0024426884 0.12847629 -0.01972181 -0.022453714 0.017633924 0.11440063 0.2683817 0.062434208 -0.2174205 0.07350381 -0.07928634 0.27036816 0.106588505 0.23678462 0.0005945481 0.10156338 -0.19524838 -0.2746053 0.07528463 0.12066657 -0.20414524 0.020722084 0.040887125 0.19577117 -0.118755914 -0.037062004 -0.04911365 0.10029773 0.015245491 0.09002267 -0.071856275 0.11545495 -0.049463276 0.2267633 0.10330307 0.03638286 0.11988635 -0.00018672436 0.061350733 -0.13718541 -0.05501002 0.16842054 0.040010735 -0.014490758 0.089720726 -0.08842492 -0.2103188 0.085662834 0.11667914 -0.11360148 -0.09394774 -0.18623027 0.03706328 0.061547652 -0.07709393 0.101794474 0.040745012 -0.0304631 -0.06767099 0.13417682 0.04478389 0.060789272 -0.15018433 0.113695465 0.047046058 -0.12774159 0.030143516
920 -0.2559939 -0.16501036 0.030422447 0.06674007 -0.0040410976 -0.09894138 -0.102479614 0.08022967 0.0056556263 0.13876568 0.07698109 0.02889515 -0.03944952 0.055727962 -0.077224694 -0.022609444 0.23603071 -0.16640449 -0.113394 -0.020197399 0.16512567 -0.4385775 -0.091196924 0.25851506 -0.42882702 0.07950136 0.08733554 -0.029306235 -0.057075877 0.039086383 0.09451263 0.14247344 0.058233026 -0.24608314 -0.107091315 -0.21698159 0.30638966 0.26494485 -0.062730774 0.12529995 0.09221451 -0.047230817 0.009257238 -0.13666706 0.15480554 -0.21535482 0.19045776 0.04388495 -0.19724657 -0.083085366 0.15154777 -0.19793773 -0.06661241 -0.082605444 -0.16169165 -0.14773415 0.07399683 -0.18493527 0.025690142 0.016801452 -0.110905044 0.029035876 0.10747319 -0.3684046 0.13238958 0.04229395 0.20170403 0.4645186 0.07716506 -0.3136397 0.18138945 -0.26234668 0.1148722 0.053708944 0.21423396 0.009906259 0.06718282 -0.017959101 -0.2166977 -0.038261995 -0.21465434 -0.46272883 0.12918422 -0.12560657 0.25509438 -0.10239716 -0.037957974 -0.10560546 0.27727368 0.10426986 0.039293054 -0.17027554 0.1047286 -0.07649188 0.26792282 0.47363523 0.0045713526 0.09836662 0.029031266 0.005441689 0.056042675 -0.21085335 0.55087274 0.23190203 0.12121673 -0.10436738 -0.0888191 -0.1635588 -0.11105432 -0.26382518 -0.04923569 0.17885748 -0.41014874 -0.12434682 0.1890376 0.07567419 -0.027526984 0.07221663 -0.2399774 -0.06386922 -0.008285461 -0.13447931 0.09381075 -0.08877365 -0.026766507 0.16341478 0.0442541 0.12126822
12 -0.037636004 0.0070489594 -0.15796198 -0.2520035 -0.22849073 0.14382948 0.07151324 0.34732935 -0.3132516 -0.10185478 -0.17526229 0.197794 -0.033669773 0.10987782 -0.371608 0.15987676 -0.0505798 -0.033369273 0.08395195 0.21743001 0.070379294 -0.14542249 -0.06700023 0.21615325 -0.029994434 -0.33328786 0.21614984 0.184419 -0.13326234 0.39452928 0.0033705395 -0.16044061 -0.26161918 0.26394692 -0.02851788 0.17498174 0.12648307 -0.45262316 -0.2883012 -0.1937695 -0.16831188 -0.26113576 0.40791374 -0.16894306 0.3425096 -0.1184546 -0.10540632 0.24178573 0.027027298 0.019493993 -0.039865725 -0.28678587 -0.5337719 -0.20242949 -0.14089315 -0.025412781 0.41810855 0.1150662 -0.08781912 -0.01434503 -0.043369688 -0.089028634 0.03657868 0.41031364 -0.0032537146 -0.34319773 0.030403705 0.10848951 0.05762158 -0.31025648 -0.139093 -0.041815884 0.40408933 -0.22698818 0.25485027 -0.09012873 0.26349187 -0.30228406 -0.36893368 -0.09044923 0.09425112 -0.18933728 0.14745612 -0.045570944 -0.022383068 -0.22436334 0.21356034 -0.011546131 0.25531763 0.078514695 0.15512896 0.069214724 -0.20617482 -0.004976697 -0.08190808 0.24534093 0.07492872 -0.06810023 0.06578915 0.14997388 0.08739394 0.15476163 -0.10618325 0.009598995 0.05969856 -0.031640153 -0.10116672 0.16719985 0.15635344 -0.031853992 0.13435516 -0.007018991 -0.11693452 0.018171944 0.14642192 0.15868683 0.2095147 0.07005239 0.302474 -0.24523444 0.077461444 0.1991073 -0.06779045 -0.047037255 -0.027186379 0.107005745 -0.18190642 -0.03786282
1 -0.09088269 -0.16702619 -0.28881398 -0.21408123 -0.044340707 0.027848247 0.056952152 0.4939419 -0.30354035 -0.14512561 -0.18913308 0.2536714 -0.120051466 -0.0031678197 -0.26859745 0.20307423 0.117486775 -0.09633395 -0.054027073 0.2689178 0.10633113 -0.19646615 -0.03868215 0.4175818 -0.15194309 -0.45247632 0.186202 0.12472631 -0.09310193 0.50909644 0.2025986 -0.21856888 -0.2954023 0.3288067 -0.12949882 0.071252644 0.14972591 -0.4684783 -0.26520172 -0.25670946 -0.0769561 -0.38635135 0.45730728 -0.25755224 0.44188374 -0.1263413 -0.015715439 0.2855471 0.024061447 0.1129995 -0.05825423 -0.31282318 -0.5097155 -0.17646956 -0.198027 -0.044822644 0.44563103 -0.04089926 -0.19757201 -0.07997796 -0.13793752 -0.08087754 0.07039567 0.3775376 -0.028886091 -0.45257455 0.02193035 0.18988562 0.08546873 -0.32120872 -0.19397384 -0.06690364 0.46682942 -0.34841526 0.512081 -0.16407643 0.39917564 -0.3994353 -0.5155194 -0.0402515 0.18698049 -0.11546205 0.3604678 -0.31883743 0.050666794 -0.22487307 0.062846415 0.13767992 0.42634594 -0.07700977 0.31064478 0.18548253 -0.4226384 0.063113995 0.0057485243 0.25872633 0.05258209 -0.053636845 0.27912945 0.056684013 0.14749627 0.1448316 -0.061351553 0.0779138 0.1926886 -0.05228214 -0.17425935 0.21279767 0.27802953 -0.078925855 0.116430946 -0.024847146 -0.12942255 -0.061695278 0.095739186 0.35355163 0.34894487 -0.0075902143 0.27670208 -0.31076476 -0.024111127 0.26845485 -0.040587418 -0.030765893 -0.04636876 0.13504921 -0.15967909 -0.16784413
880 -0.30012536 0.08854119 0.021236772 -0.034720145 -0.11293177 -0.17740655 0.10268271 0.026391296 -0.29347414 0.124986954 -0.038200334 -0.05794078 -0.07466664 0.08993179 -0.059732955 0.0010784013 0.368998 -0.016015045 -0.11778256 -0.009815452 -0.06665748 -0.296264 0.092611834 0.20253533 -0.09709396 -0.0867761 0.21418585 0.09398413 0.022339083 0.040591873 0.061099198 -0.11024527 0.10867365 -0.21163146 -0.07314504 -0.0838869 0.3044537 0.04461443 -0.12848614 0.06038496 0.08237672 -0.09550552 0.13672061 -0.35912436 0.25315517 -0.17446178 0.19053738 -0.0026796293 -0.296732 -0.26521662 0.042123754 -0.18394582 -0.08979188 -0.06534905 -0.20408665 -0.03272422 0.28585237 0.060574397 -0.14401786 0.07732914 0.012822751 -0.001852204 0.14962348 -0.096680164 0.15150745 -0.16307697 0.0293495 0.21003094 0.08253284 -0.18624339 -0.048201542 -0.08999566 0.23478599 -0.11398232 0.27117026 0.05616536 0.07809571 -0.06487682 -0.16581142 -0.102592915 -0.068643935 -0.36832002 0.17272586 -0.36106357 0.080470994 -0.124043696 -0.14175577 0.10138306 0.23917978 0.23396757 0.09224092 0.020267744 -0.19297764 -0.062467184 0.091476485 0.35583174 -0.03285652 0.03636827 0.0029862386 -0.16034043 0.1580078 -0.08518043 0.1824796 0.11515473 0.06407653 -0.11599436 -0.19723873 -0.09520438 0.0059211473 -0.24303049 0.021830902 0.10409616 -0.15220623 -0.26826203 0.02858104 -0.03982516 -0.110892214 -0.035585817 0.025830803 -0.19001432 0.081836276 -0.07939372 -0.088426635 -0.0615474 0.12827796 0.2559336 0.09471932 -0.021138674
45 -0.21530607 0.14600912 0.11515567 0.18338418 -0.04944221 -0.024049843 0.07323121 0.12984605 -0.16914168 0.13395235 0.022628875 0.047782023 0.103570655 0.022881988 0.032817833 -0.14806817 0.32580763 -0.29585993 -0.022018418 0.0315912 0.10178409 -0.40692693 0.22725481 0.2925503 -0.16971979 -0.28755578 0.14769457 -0.012574067 0.02668252 0.15639578 0.035696335 -0.04561442 0.021203345 -0.3442358 0.08989796 -0.27181214 -0.01760266 0.27649677 -0.15459526 0.18747093 0.04452584 -0.061138175 -0.112771645 -0.18562019 -0.041667543 -0.109975256 0.025684481 0.09063836 -0.34101498 -0.20096606 -0.013912877 -0.10532554 -0.20207942 0.010007788 -0.24580474 -0.11288283 0.14121737 -0.04993918 -0.010151719 -0.088524446 0.039104305 -0.15748021 0.07165343 -0.082248665 -0.014367527 0.008626763 0.11416764 0.4610772 -0.055731848 0.00800571 0.3619814 -0.17882882 0.062070403 -0.051086828 0.37454244 0.21484053 0.18756889 0.12355008 -0.08943632 0.169932 -0.18383493 -0.5149471 0.009444745 -0.29156402 0.29925373 -0.19681922 -0.16711962 -0.049968068 0.21632805 0.06678164 0.10930932 -0.29459932 0.24027446 -0.06249635 0.40055028 0.26328224 -0.036889292 0.11605271 -0.048063908 -0.14606155 -0.035236653 -0.11882006 0.6203033 0.23233256 0.13874687 -0.10432863 -0.051849987 -0.22396356 -0.08098302 -0.13719736 0.19241576 0.25208592 -0.24622482 -0.118459344 0.15030102 -0.1581269 -0.17569032 -1.6803824e-05 -0.112027116 -0.07503624 0.11692082 -0.20297553 -0.069447175 -0.29182166 0.031700626 0.21879089 -0.08793954 -0.22947893
14 0.08192575 -0.065320976 -0.15033315 -0.025311923 -0.067260824 0.02951392 -0.04633984 0.16029836 -0.04367346 -0.10926967 0.05489774 0.11281625 -0.051428843 0.046420287 -0.31709167 0.086192146 -0.060464684 -0.076730646 0.017061058 0.16105725 0.045780428 0.0015548294 -0.10193415 -0.039784394 -0.015091972 -0.20786777 0.018442605 0.092278175 0.0132733155 0.32769156 0.17825812 -0.024976024 -0.13022687 0.3677441 0.027438695 0.21325289 0.28088415 -0.38138935 -0.24362852 -0.18573824 -0.14196718 -0.28616932 0.41829288 -0.08191974 0.3836701 -0.009748168 0.0183734 0.26395452 0.004125458 0.11684984 -0.003182476 -0.11717848 -0.5548083 -0.33692762 -0.14500138 -0.10444027 0.3825709 -0.047936294 -0.12998767 0.02908013 -0.12506971 -0.004255179 0.061890442 0.29014993 -0.009163128 -0.33714503 0.036932986 0.1975615 0.06900029 -0.24717803 -0.11409505 -0.09763141 0.3932291 -0.19867638 0.30552846 -0.06406445 0.32143584 -0.38190937 -0.5327461 -0.12519477 0.1533325 -0.21572725 0.23280491 0.014721054 0.22061703 -0.15526578 0.062012263 0.056473665 0.15745029 0.0073166816 0.19750531 0.18806145 -0.18368052 -0.008293334 0.0636381 0.046641625 0.03823971 0.004256987 0.10121823 0.11327811 -0.03429659 0.10117136 0.026526656 -0.0317084 0.14473827 0.084853925 -0.22499706 0.052811854 0.19957277 0.07303755 0.06417356 -0.08894912 -0.09638902 0.077574246 0.034171503 0.18879148 0.33221826 -0.009132462 0.20152995 -0.22569317 0.034802727 0.24597839 0.033781704 -0.15078329 0.04342988 0.10409556 -0.14830296 -0.003888593
934 -0.27015233 0.03431093 -0.08871607 -0.039236333 0.054045998 -0.09228032 0.08055882 0.33377412 -0.30045938 0.0623578 0.024314845 0.08433578 0.055203654 -0.017242929 0.11150756 0.083683014 0.29269758 -0.074655585 0.106200255 0.087847844 -0.046843 -0.22659542 0.09824544 0.28910244 -0.13087173 -0.4611343 0.12066302 0.12069209 0.021011796 0.18221682 0.15403081 -0.34681648 -0.1717919 -0.14839832 -0.15788375 -0.27835226 0.13506383 0.038522713 -0.14061047 -0.096146084 -0.041011862 -0.1071013 0.07887325 -0.061793983 0.21183173 -0.2570636 -0.08911014 0.13203262 -0.033424903 -0.092749566 -0.054153334 -0.10322108 -0.17508674 0.0531812 -0.20650497 -0.06387963 0.28474408 -0.07946705 -0.20298153 0.076413125 0.02986989 -0.023792978 -0.016978428 0.15622117 -0.032485627 -0.1928978 0.057293408 0.2929351 -0.012856479 -0.038925197 0.03231766 -0.3708181 0.3367975 0.046397395 0.520216 -0.023197656 0.06196592 -0.11629802 -0.1770838 -0.056232262 0.213361 0.025952278 0.20689225 -0.49851197 0.023413615 -0.019177796 -0.23270352 -0.014225982 0.3001701 0.020580009 0.0005526841 -0.05944473 -0.06320545 -0.12501222 0.2496536 0.17039587 -0.017955417 -0.02918163 0.08339761 -0.11642421 0.04766559 0.014829712 0.15057619 0.10956569 0.12600282 -0.13040851 -0.12030976 -0.07627463 -0.02340535 -0.09920394 -0.032238316 0.026499998 -0.05854049 -0.20035249 0.22958538 0.018807743 0.016995871 0.021752585 -0.13221951 -0.112537965 -0.022081727 0.029570645 -0.06325996 -0.013486861 -0.11696742 0.07346944 -0.03971082 -0.20065475
874 -0.18477271 0.16220039 -0.059367158 -0.024928045 -0.18025416 0.1459847 0.18130764 0.09503162 -0.16269006 -0.02224385 -0.0116440235 0.06875326 0.1541616 0.02028866 -0.055221718 -0.08231948 0.18991098 -0.12832446 0.2112008 0.013428377 0.053015698 -0.12585665 0.009597756 0.117986634 -0.06211838 -0.17708744 0.20741895 -0.00094405445 0.0071157264 0.13534756 -0.12839167 -0.06550015 -0.028252749 -0.17749968 0.041930173 -0.02005915 0.18862768 0.15771437 -0.1698096 0.07803904 -0.037226453 0.010909681 0.14220016 0.004459421 -0.07406011 -0.3375538 -0.008240337 0.06832196 -0.16969247 -0.18409768 -0.024559023 -0.20946082 -0.2816836 -0.035416268 -0.16415553 -0.03499161 0.15675242 0.07094031 -0.04615963 0.1004906 0.06819909 0.057770107 0.17512369 0.074171714 0.12628788 0.055814072 0.0978814 0.19003376 0.04185593 -0.10800669 0.20331824 -0.14495176 0.29637143 0.012913392 0.2630846 -0.088586755 0.1210863 0.019581925 -0.23191668 0.06471359 -0.02172874 -0.2082228 -0.06850396 -0.0997807 0.05166706 -0.12088688 -0.0602958 -0.11051292 0.3222952 0.152256 0.0148404315 -0.13428518 0.14013731 0.012478531 0.1910024 0.34993285 0.08388884 0.0007837692 -0.11654451 0.050547063 0.25739306 -0.093772635 0.32756016 0.10918055 0.072818495 -0.08407611 -0.012075592 -0.13566487 0.07479303 -0.021815918 0.0871306 0.15791632 -0.24223782 -0.22618908 0.26080868 -0.11059972 -0.093941435 -0.010217131 -0.18637098 -0.1323566 0.09570528 0.013290992 0.018298618 -0.16214429 -0.017047444 0.12494372 -0.07918954 -0.17518306
52 0.05407804 0.038567588 -0.09149091 0.2540825 -0.10068859 0.086456195 0.03672107 0.05358619 0.0335293 -0.10572817 0.27073944 0.01158262 -0.040916853 0.14538693 -0.43229774 -0.12419034 0.07870317 -0.41739455 0.059497997 0.023124598 0.15115613 -0.20741145 -0.19935039 -0.21827674 -0.28060386 -0.058422025 0.16221468 -0.037825722 0.13585703 0.23810346 0.16921048 0.23845159 0.027250811 0.11957688 0.078647055 0.1510088 0.23179254 -0.03136668 -0.14256717 -0.04420817 -0.26398724 -0.10868677 0.2940786 0.10308642 0.003665077 -0.041737787 -0.008792077 0.1108348 -0.17993487 0.08599341 0.06625472 -0.10550041 -0.3865324 -0.40949762 -0.17887363 -0.19836079 0.14305815 -0.08253293 -0.0039856033 0.14848909 -0.19489767 0.028484626 0.074932806 -0.035440344 -0.010737763 -0.036032338 0.21683265 0.31433812 0.10210234 -0.26556644 0.26333204 -0.11182454 0.25453335 0.04990405 0.09852551 0.021164399 0.20040692 -0.11563313 -0.39823806 0.027910698 0.068031944 -0.274591 0.004463116 0.29666162 0.3471413 -0.041690763 -0.025081929 -0.1082769 0.04462985 -0.052271254 0.0441568 -0.051001083 0.2235473 -0.07179306 0.25622022 0.11004444 0.01998982 0.08184036 -0.0737592 0.13808839 -0.06510746 -0.02998086 0.33986908 -0.048944928 0.053061932 0.16657366 -0.048096754 -0.1943806 0.043632455 0.20777556 -0.118244626 -0.09227839 -0.355404 0.04297503 0.14242361 0.0017464973 0.20343661 -0.028122865 -0.059139915 -0.101350926 0.08085872 0.04417614 0.13347498 -0.15102848 0.04787064 0.012420553 -0.1145031 0.07318517
948 -0.06826813 0.077498674 -0.09543974 0.12207568 -0.07149963 0.16132815 0.14853205 0.03809098 -0.019311864 -0.118889965 0.036266506 0.034249656 0.058690205 0.030260803 -0.2036516 -0.016822455 0.10128588 -0.23936583 0.14188674 -0.020962931 0.11512518 -0.12690364 -0.11305785 -0.038949367 -0.1291319 -0.075219944 0.16472694 0.013089454 0.07521284 0.2146758 0.0739873 0.035869785 0.02273623 0.04220897 0.0024134999 0.10391834 0.2143753 0.04681298 -0.122855976 0.021358633 -0.17016377 0.0109869335 0.19864641 0.071855314 0.006372649 -0.24314646 -0.005768274 0.09546352 -0.1606618 -0.0072084507 -0.05864344 -0.082418196 -0.36161283 -0.15821674 -0.15509206 -0.034722015 0.13582842 -0.07390035 -0.07877939 0.17388444 -0.045814548 0.06683156 0.14783593 0.02812159 0.08271197 -0.05807477 0.086574554 0.26573494 0.08776162 -0.21389169 0.13760404 -0.18723547 0.27572808 -0.022564081 0.19542593 -0.10226474 0.16660616 -0.031095652 -0.30805433 0.06816885 0.051014025 -0.20351318 -0.06710204 0.08233642 0.12828302 -0.042430516 -0.10488906 -0.1290031 0.21207735 0.09665921 0.026283816 -0.026686583 0.2157614 -0.049228262 0.16370328 0.1936336 0.049171507 0.12546028 -0.021317149 0.03867908 0.11361439 -0.051598717 0.27056938 0.03626361 0.0867807 0.09135228 -0.041627582 -0.12566423 0.12643553 0.14409475 -0.1227668 0.0018428251 -0.1949178 -0.069988 0.19894771 0.01804732 0.0744691 -0.0714558 -0.1401502 -0.13259572 0.05607397 0.06941487 0.09362678 -0.17048264 -0.020935593 0.06170737 -0.057440367 -0.07952382
916 -0.1888195 0.28468475 0.033084147 0.120308064 0.056001388 0.009635339 0.08986012 -0.14836541 -0.22502309 0.3154554 -0.09236586 -0.09624883 0.14803265 0.15769856 -0.09605155 -0.17324558 0.404633 -0.13925996 0.010353579 0.22447191 0.065195106 -0.2559124 0.3309174 0.3302325 -0.16736184 -0.18884693 0.22267056 -0.030999282 0.085217334 -0.05727004 -0.072030045 -0.15818293 0.033932496 -0.41670173 -0.0013720666 -0.30459666 0.11051394 0.11732959 -0.12956141 0.08048034 0.113964245 -0.11597234 0.09598632 -0.36946315 -0.06553378 -0.3876611 -0.039865132 0.0068326094 -0.46359265 -0.114649326 -0.10489659 -0.12816286 -0.31304973 -0.014902388 -0.22563551 -0.15755437 0.23982187 -0.03695313 -0.0051629413 -0.047381278 0.17015985 -0.09526089 0.20863408 0.18446644 -0.0061355275 0.07423445 -0.015728973 0.49003568 -0.051210873 -0.18907735 0.16319706 -0.15360908 0.0049043377 0.11013916 0.5078424 0.12777139 0.091330804 0.18917081 -0.017121281 0.3336868 -0.102187544 -0.4193315 -0.056613557 -0.3463348 -0.058581248 -0.23880777 -0.13628909 0.14978614 0.38802677 0.12743104 0.40977007 -0.46169525 0.33956766 -0.0034862293 0.18657863 0.26876307 -0.08540289 0.01598084 0.028866356 -0.0007833375 -0.068047754 -0.18562514 0.48483166 0.13085271 0.06254366 -0.08155751 0.048925515 -0.2480026 0.14993334 -0.062050786 0.08435639 0.06604858 -0.20738709 -0.18612756 0.2118081 -0.29625058 -0.4018777 0.019967956 0.017525898 -0.15716563 0.23967706 -0.17504115 -0.016848512 -0.18382367 0.040018685 0.14393258 -0.19040993 -0.26229605
35 -0.09798212 0.21098258 0.13813582 0.3308432 -0.14119872 0.082712166 0.12418952 0.019455474 -0.19145395 -0.038450338 0.16030912 -0.13006373 0.044448532 0.09313173 -0.32131413 -0.124071926 0.16766945 -0.35567182 0.10669145 -0.18540199 0.03007281 -0.19040659 -0.1788201 -0.076747775 -0.30149472 -0.019937817 0.17191842 -0.022783361 0.17574309 0.027039668 0.14526163 -0.055659395 0.22593024 -0.17883103 0.1689957 0.05700163 0.211748 0.17232491 -0.0721054 0.037707176 -0.24277923 0.014725726 0.2209047 0.010827282 0.012651234 -0.052192282 0.06328245 0.027925024 -0.16782594 -0.12336765 0.074762456 -0.110614784 -0.24302538 -0.29896042 -0.29811186 -0.23865364 0.08089183 -0.019074157 -0.16221197 0.10751304 -0.07813659 -0.061908066 0.058478344 -0.10171756 0.06925975 -0.055927623 0.2507268 0.38550904 0.106565304 -0.096689 0.29935077 -0.076837115 0.28360143 0.1383048 0.30621177 -0.0010611481 0.09207065 -0.15499195 -0.26419237 0.051410787 0.14542094 -0.28067783 0.1422662 -0.0356253 0.3095071 -0.15282811 -0.14683601 -0.028086295 0.17171238 0.14815539 0.012647181 0.10751956 0.21389046 -0.15733598 0.24527173 0.21476875 -0.047733337 0.09218935 -0.035988506 0.019496262 -0.06266942 -0.052301854 0.30785003 0.08113558 -0.033667892 -0.00974915 0.00600834 -0.18648711 0.026852705 0.15559587 -0.0904889 0.0139861135 -0.2357432 -0.046272617 0.10395369 -0.1185782 0.094476305 -0.05232591 -0.08034358 -0.09422124 0.011885746 -0.053726107 0.021794656 -0.16206226 0.087155044 0.098197736 -0.13085838 -0.029472863
0 0.06141871 0.0047312244 0.12356512 0.23108798 -0.047477253 0.030532034 -0.07511738 -0.011779161 0.07984937 -0.087437995 0.14717628 0.02181009 -0.00090416975 0.112020575 -0.34895232 -0.19410273 0.09629483 -0.21614818 -0.0045216675 -0.06082519 0.1752786 -0.22699818 -0.113827124 -0.11294679 -0.16013855 0.026040848 0.034368075 -0.1029463 0.17808254 0.085504636 0.14612162 0.1929841 0.1375564 -0.11186776 0.28122273 0.054939434 0.16358459 0.042992953 -0.18054606 0.034967117 -0.15925993 -0.15108927 0.28803983 0.03036622 9.8059914e-05 0.021955093 0.07886209 0.14430907 -0.12911299 -0.0649482 0.1116148 -0.0942694 -0.26667896 -0.27202564 -0.2732387 -0.17094044 0.11477659 -0.12950131 0.033355717 -0.058401495 -0.10611953 -0.12099154 0.13247377 -0.09595693 -0.03130828 -0.063036904 0.05431454 0.38529378 -0.10561201 -0.10558755 0.43899286 -0.01678645 0.018149354 -0.0525173 0.010414538 0.2198973 0.21995899 -0.092506245 -0.26911363 0.12878324 -0.11594926 -0.47420695 -0.019418437 0.30096683 0.40792206 -0.031397697 -0.023226626 -0.0844857 0.10140719 0.025204133 0.090059265 -0.06430346 0.29773405 0.055936616 0.41132304 0.059459247 0.044474762 0.12748672 -0.105464384 -0.03515071 -0.04225026 -0.07707483 0.589822 0.21256585 0.099288866 0.0012516768 -0.06370155 -0.28146988 -0.09738681 0.09672152 0.122092895 0.101984896 -0.26678452 -0.10240059 0.06952567 -0.13166285 0.03169492 -0.024764642 -0.07694366 -0.040425275 0.03849423 -0.13387527 0.19070122 -0.34069404 0.041000467 0.060504604 -0.076552354 0.09818002
848 -0.26073483 0.18241817 0.0857492 0.13020548 -0.13522825 -0.049712658 0.15293606 0.18282625 -0.27936965 0.044475276 -0.14145316 0.04101062 0.011943375 0.12600446 0.052376132 -0.15030059 0.41400453 -0.16493043 -0.02598891 -0.09671566 0.06307671 -0.4753988 0.08147385 0.24064685 -0.15336734 -0.30853933 0.2788506 -0.008494768 0.19387557 0.13700409 -0.037708666 -0.071378075 -0.037625484 -0.4031546 -0.076124355 -0.17729764 0.027149882 0.26987273 -0.2729265 0.11897849 -0.007503378 -0.08625566 0.012734716 -0.18015257 0.010925812 -0.25680527 0.13422248 0.055874433 -0.30654255 -0.29027897 0.03235798 -0.21699575 -0.17965078 -0.11822666 -0.30695054 -0.02520553 0.2911646 -0.06746384 -0.105570585 -0.036811437 0.026249506 -0.10403279 0.20311366 -0.104054995 0.074253835 -0.0074608475 0.12317407 0.18807773 0.012519737 -0.045552272 0.19854644 -0.12638195 0.10415643 -0.1198329 0.10427908 0.1219402 -0.01415888 0.09683669 -0.01540182 0.15252487 -0.13786514 -0.24110691 -0.005511207 -0.2039809 0.16409989 -0.11505112 -0.12269743 -0.108738236 0.17135617 0.04858297 -0.080311656 -0.08056444 -0.020949587 -0.058428925 0.28141797 0.28818774 0.037257086 0.057722073 -0.18147063 -0.05852907 0.23592407 -0.08145524 0.42673567 0.30931848 0.28030676 -0.3408701 -0.2477549 -0.17910244 -0.21233992 -0.26212943 0.048450634 0.25848126 -0.17932819 -0.25228265 0.05754199 -0.15331297 -0.15468636 0.03299051 -0.17699647 -0.1233544 0.094372444 -0.1998504 0.03242184 -0.16069421 0.08878498 0.26375934 0.015289594 -0.07831211
909 0.11524602 -0.031490006 -0.027695334 0.16296993 -0.05570758 0.06976312 -0.051141094 -0.018784106 0.0697804 -0.066552535 0.17148438 0.016685756 -0.030495033 0.030491084 -0.34215307 -0.059622947 -0.0679928 -0.16779254 0.050297227 0.065946884 0.0138729215 0.08240638 -0.15859124 -0.28357622 -0.06934872 -0.10194606 -0.0776952 0.009003552 0.10454808 0.17154174 0.17903592 0.06709621 -0.022416202 0.24008995 0.13920233 0.16544145 0.2454528 -0.09893065 -0.24340665 -0.07270696 -0.20973627 -0.18081662 0.29267052 0.088416 0.23634687 -0.0037141829 0.010780705 0.22090699 -0.050344504 0.045736175 0.045931254 -0.050555717 -0.50208575 -0.4259468 -0.14908525 -0.17054574 0.2338246 -0.088830195 -0.14015381 0.083554074 -0.12449686 0.013805252 0.08721286 0.08551952 -0.017060759 -0.2055952 0.14825617 0.26710284 0.057390835 -0.19063917 0.05792744 -0.12666452 0.31582952 -0.017580405 0.25296387 -0.011474762 0.23513258 -0.28347355 -0.4913624 -0.066212155 0.13365377 -0.25125062 0.15266491 0.13379593 0.36278108 -0.16844241 0.012398867 -0.04420087 0.028440954 0.024346922 0.1051486 0.11366158 0.02883205 -0.08962332 0.19977133 -0.0268029 0.015264829 0.016980022 -0.019463371 0.15328014 -0.13801357 0.06679983 0.24291688 -0.012604746 0.097047135 0.106360756 -0.19501096 -0.09839397 0.08139378 0.14325352 0.0033110213 -0.053758454 -0.14556384 0.11034691 0.026158009 0.027233224 0.27357712 -0.035423122 0.09825578 -0.13107301 0.03522109 0.1809342 0.1018112 -0.22756022 0.09653597 0.101928405 -0.15534085 0.014419677
938 -0.011950621 0.040453114 0.21198973 0.28637233 -0.054413665 0.02344431 -0.033403967 -0.037373412 -0.02769248 -0.031851098 0.08116007 0.022377402 0.06115694 0.099224664 -0.32160428 -0.29885656 0.2157314 -0.15875812 0.00049038284 -0.086724706 0.17037047 -0.29521313 -0.014414932 -0.04321802 -0.14679594 0.039737888 0.0614777 -0.10716407 0.28611362 0.013531461 0.09144907 0.19410528 0.1762631 -0.28707212 0.34440842 -0.012199165 0.13690883 0.18469425 -0.20944333 0.1440958 -0.07416181 -0.110268176 0.30901307 0.00294779 -0.10385923 -0.01262654 0.13080645 0.08757424 -0.16075481 -0.2167598 0.09507824 -0.10747829 -0.23974486 -0.23638457 -0.3395102 -0.14429735 0.081095256 -0.12539896 0.0032603787 -0.120916955 -0.044318937 -0.1779907 0.22454315 -0.13029909 -0.039025474 -0.02385083 0.0064282725 0.3467683 -0.20612265 -0.03697942 0.5371158 0.040828776 -0.0529782 -0.07127465 0.03912086 0.28607363 0.22211288 -0.025336277 -0.18765111 0.16442832 -0.20814642 -0.5614438 -0.026678694 0.23043036 0.38360116 -0.061251387 -0.005136636 -0.032406557 0.13023701 0.09020322 0.13747293 -0.09121799 0.2588061 0.1080273 0.4398294 0.056498505 0.07130953 0.104904875 -0.16981623 -0.12060831 -0.0013571241 -0.11541765 0.716625 0.32102466 0.1347409 -0.08403505 -0.06235426 -0.3322949 -0.15565494 -0.019879546 0.24709389 0.19630666 -0.20377502 -0.1752861 -0.010977097 -0.22411741 -0.1071151 -0.03558625 -0.10216296 -0.01686226 0.06571022 -0.24037924 0.19041657 -0.38471058 0.07605894 0.09705556 -0.07242412 0.04436078
937 -0.12900476 0.07956045 0.14437328 0.17260851 -0.069358364 -0.02668848 0.0142752575 -0.021663513 -0.09988235 -0.011548205 -0.00465071 -0.0050054984 0.041565325 0.06996984 -0.1871154 -0.16454904 0.28079197 -0.13627364 0.010597839 -0.104683094 0.112599015 -0.284188 0.016760416 0.04834953 -0.11028271 -0.059714597 0.113820925 -0.06745874 0.21618171 0.03380561 0.114799775 0.076140866 0.17038722 -0.28653708 0.2358228 -0.030909386 0.13324827 0.16100761 -0.18333723 0.12052681 -0.07806595 -0.077508986 0.19421466 -0.0688895 -0.04522728 -0.10390947 0.12866028 0.092362694 -0.22979014 -0.22195277 0.034358338 -0.104993574 -0.16877408 -0.12531243 -0.29510692 -0.095402755 0.10304845 -0.053926855 -0.03363952 -0.06866808 -0.02028463 -0.12377048 0.20166764 -0.0950299 0.009903865 -0.07823678 -0.014537386 0.32928804 -0.14357057 -0.045497727 0.4257529 -0.027792724 0.028607946 -0.100587614 0.08096847 0.26573634 0.21954548 0.010420425 -0.16854015 0.13308372 -0.1574614 -0.45630428 0.04067189 0.03840295 0.2579298 -0.049113154 -0.08194639 -0.063698776 0.19585522 0.11323101 0.08524256 -0.105706155 0.22297694 0.04558256 0.40953648 0.12027694 0.010892684 0.10449154 -0.122827135 -0.1713968 0.100753166 -0.09189028 0.57259923 0.27833238 0.118169725 -0.08777777 -0.08878839 -0.27209532 -0.16305792 -0.03694361 0.18757139 0.16346334 -0.16906562 -0.27346867 0.06955184 -0.18072717 -0.0985006 -0.08219689 -0.10325909 -0.05833995 0.065475576 -0.19330941 0.10238636 -0.3076594 -0.0037255755 0.13414644 -0.037099227 -0.018137604
